{"learner":{"attributes":{"scikit_learn":"{\"_estimator_type\": \"classifier\"}"},"feature_names":[],"feature_types":[],"gradient_booster":{"model":{"gbtree_model_param":{"num_parallel_tree":"1","num_trees":"100"},"iteration_indptr":[0,1,2,3,4,5,6,7,8,9,10,11,12,13,14,15,16,17,18,19,20,21,22,23,24,25,26,27,28,29,30,31,32,33,34,35,36,37,38,39,40,41,42,43,44,45,46,47,48,49,50,51,52,53,54,55,56,57,58,59,60,61,62,63,64,65,66,67,68,69,70,71,72,73,74,75,76,77,78,79,80,81,82,83,84,85,86,87,88,89,90,91,92,93,94,95,96,97,98,99,100],"tree_info":[0,0,0,0,0,0,0,0,0,0,0,0,0,0,0,0,0,0,0,0,0,0,0,0,0,0,0,0,0,0,0,0,0,0,0,0,0,0,0,0,0,0,0,0,0,0,0,0,0,0,0,0,0,0,0,0,0,0,0,0,0,0,0,0,0,0,0,0,0,0,0,0,0,0,0,0,0,0,0,0,0,0,0,0,0,0,0,0,0,0,0,0,0,0,0,0,0,0,0,0],"trees":[{"base_weights":[-5.5174013E-7,9.623147E-1,-2.88788E0,1.0972463E0,-7.733437E0,-2.7960098E0,1.1088756E0,-2.8701394E0,-4.500554E0,1.115123E0,-4.5377893E0,3.2477364E-1,-6.2111096E0,3.3456114E-1,2.9165944E-1,-2.711686E0,3.0934075E-1,-4.300898E0,-2.827054E0,-4.1672308E-2,1.8902169E-1,3.1360584E-1,-2.4520373E0],"categories":[],"categories_nodes":[],"categories_segments":[],"categories_sizes":[],"default_left":[0,0,0,0,0,0,0,0,0,0,0,0,0,0,0,0,0,0,0,0,0,0,0],"id":0,"left_children":[1,3,-1,5,7,-1,9,-1,11,13,15,-1,17,-1,19,-1,-1,21,-1,-1,-1,-1,-1],"loss_changes":[2.5698498E5,2.9600404E4,0E0,3.0191152E3,2.242166E3,0E0,8.8025977E2,0E0,1.3571716E3,1.3203125E0,7.015506E2,0E0,6.2459033E2,0E0,6.386123E-1,0E0,0E0,1.4538895E3,0E0,0E0,0E0,0E0,0E0],"parents":[2147483647,0,0,1,1,3,3,4,4,6,6,8,8,9,9,10,10,12,12,14,14,17,17],"right_children":[2,4,-1,6,8,-1,10,-1,12,14,16,-1,18,-1,20,-1,-1,22,-1,-1,-1,-1,-1],"split_conditions":[-6.513769E-2,-1.3030131E-1,-2.88788E0,-1.6058731E-1,1.2152896E0,-2.7960098E0,5.763794E0,-2.8701394E0,1.2153405E0,5.64899E0,-1.312811E0,3.2477364E-1,1.215646E0,3.3456114E-1,2.3356473E-1,-2.711686E0,3.0934075E-1,6.6456556E0,-2.827054E0,-4.1672308E-2,1.8902169E-1,3.1360584E-1,-2.4520373E0],"split_indices":[4,22,0,12,0,0,1,0,0,1,0,0,0,0,0,0,0,1,0,0,0,0,0],"split_type":[0,0,0,0,0,0,0,0,0,0,0,0,0,0,0,0,0,0,0,0,0,0,0],"sum_hessian":[2.7739666E4,2.5219438E4,2.520228E3,2.483495E4,3.8448874E2,2.6801071E1,2.4808148E4,2.440845E2,1.4040424E2,2.4781531E4,2.6615597E1,3.301447E1,1.0738976E2,2.477875E4,2.782118E0,1.4374277E1,1.224132E1,6.881106E1,3.8578705E1,1.4837964E0,1.2983218E0,2.921224E1,3.9598816E1],"tree_param":{"num_deleted":"0","num_feature":"79","num_nodes":"23","size_leaf_vector":"1"}},{"base_weights":[4.0427396E-1,-1.32161E0,1.080118E0,-6.418405E-1,-1.4673187E0,1.0823077E0,-1.1839004E0,5.584188E-1,-1.3094991E0,-1.368679E0,-4.4456455E-1,-2.1992375E-1,1.082567E0,3.392175E-1,-4.1903445E-1,1.0702684E0,-4.6692446E-1,-1.3629366E0,4.588767E-1,-1.4289488E0,1.0911568E0,3.2478458E-1,4.490792E-2,3.2395658E-1,-2.641895E-1,-9.914949E-1,-1.4722581E0,-4.0480348E-1,1.6632733E0,-8.6085284E-1,-4.4019535E-1,-3.9087927E-1,7.94435E-1,-4.4637188E-1,2.7483866E-1,-4.285792E-1,-5.116915E-1,5.738452E-1,-2.3985058E-1,-4.3413603E-1,4.9941224E-1],"categories":[],"categories_nodes":[],"categories_segments":[],"categories_sizes":[],"default_left":[0,0,0,0,0,0,0,0,0,0,0,0,0,0,0,0,0,0,0,0,0,0,0,0,0,0,0,0,0,0,0,0,0,0,0,0,0,0,0,0,0],"id":1,"left_children":[1,3,5,7,9,11,13,15,17,19,-1,-1,21,-1,-1,23,-1,25,27,29,31,-1,-1,-1,-1,33,35,-1,37,39,-1,-1,-1,-1,-1,-1,-1,-1,-1,-1,-1],"loss_changes":[3.0016816E4,7.163281E2,9.296484E1,1.0264973E3,6.5371094E0,9.486328E0,1.0619429E1,4.9768558E2,7.837793E1,1.1721973E2,0E0,0E0,6.699219E-1,0E0,0E0,7.8622437E0,0E0,3.0981567E1,5.64338E1,1.5344727E1,7.511073E1,0E0,0E0,0E0,0E0,1.7629549E2,3.831787E0,0E0,1.0983097E1,7.736586E1,0E0,0E0,0E0,0E0,0E0,0E0,0E0,0E0,0E0,0E0,0E0],"parents":[2147483647,0,0,1,1,2,2,3,3,4,4,5,5,6,6,7,7,8,8,9,9,12,12,15,15,17,17,18,18,19,19,20,20,25,25,26,26,28,28,29,29],"right_children":[2,4,6,8,10,12,14,16,18,20,-1,-1,22,-1,-1,24,-1,26,28,30,32,-1,-1,-1,-1,34,36,-1,38,40,-1,-1,-1,-1,-1,-1,-1,-1,-1,-1,-1],"split_conditions":[-9.72766E-1,-6.516428E-2,-6.513769E-2,-1.5768267E-1,-1.5143621E-4,-4.8764758E-2,-8.268233E-2,-1.7886791E-2,6.6721306E0,3.6201823E0,-4.4456455E-1,-2.1992375E-1,-1.5689193E-1,3.392175E-1,-4.1903445E-1,1.215646E0,-4.6692446E-1,4.308357E-1,1.2055156E0,-2.3640888E0,1.653388E0,3.2478458E-1,4.490792E-2,3.2395658E-1,-2.641895E-1,-7.875541E-3,6.589263E0,-4.0480348E-1,1.215646E0,1.2055156E0,-4.4019535E-1,-3.9087927E-1,7.94435E-1,-4.4637188E-1,2.7483866E-1,-4.285792E-1,-5.116915E-1,5.738452E-1,-2.3985058E-1,-4.3413603E-1,4.9941224E-1],"split_indices":[29,4,4,22,9,28,5,51,1,6,0,0,23,0,0,0,0,21,0,29,2,0,0,0,0,10,1,0,0,0,0,0,0,0,0,0,0,0,0,0,0],"split_type":[0,0,0,0,0,0,0,0,0,0,0,0,0,0,0,0,0,0,0,0,0,0,0,0,0,0,0,0,0,0,0,0,0,0,0,0,0,0,0,0,0],"sum_hessian":[2.5731736E4,7.240617E3,1.849112E4,1.279026E3,5.9615913E3,1.8473771E4,1.7346498E1,4.5722675E2,8.217993E2,7.79153E2,5.182438E3,2.233932E0,1.847154E4,1.0978796E0,1.624862E1,3.6852676E2,8.869998E1,7.979168E2,2.3882484E1,7.609282E2,1.8224804E1,1.8470422E4,1.1155735E0,3.6716895E2,1.3578174E0,1.837293E2,6.141875E2,9.4997225E0,1.4382763E1,4.9624165E1,7.113041E2,7.246006E0,1.0978797E1,1.4596545E2,3.7763832E1,5.233924E2,9.0795105E1,1.3262255E1,1.1205077E0,4.0621548E1,9.002614E0],"tree_param":{"num_deleted":"0","num_feature":"79","num_nodes":"41","size_leaf_vector":"1"}},{"base_weights":[3.9219847E-1,-1.1657718E0,1.057068E0,-5.631449E-1,-1.2938786E0,1.0593235E0,-1.0071938E0,5.393353E-1,-1.1243621E0,-1.1960995E0,-3.9254373E-1,-1.862407E-1,1.0596162E0,2.9961267E-1,-3.6994627E-1,1.045213E0,-4.059699E-1,-1.1714331E0,3.5702285E-1,-1.253655E0,7.1644604E-1,3.1790495E-1,3.7470065E-2,3.1682307E-1,-2.3293534E-1,-3.884696E-1,-8.7316453E-1,-3.540571E-1,1.3110757E0,-7.21347E-1,-3.8761047E-1,-3.4210312E-1,1.6441247E0,3.1013417E-1,-3.2946277E-1,4.5703056E-1,-2.1307327E-1,-3.824292E-1,3.1939277E-1,5.3023803E-1,1.8690759E-1],"categories":[],"categories_nodes":[],"categories_segments":[],"categories_sizes":[],"default_left":[0,0,0,0,0,0,0,0,0,0,0,0,0,0,0,0,0,0,0,0,0,0,0,0,0,0,0,0,0,0,0,0,0,0,0,0,0,0,0,0,0],"id":2,"left_children":[1,3,5,7,9,11,13,15,17,19,-1,-1,21,-1,-1,23,-1,25,27,29,31,-1,-1,-1,-1,-1,33,-1,35,37,-1,-1,39,-1,-1,-1,-1,-1,-1,-1,-1],"loss_changes":[2.0618438E4,4.5891113E2,6.602051E1,6.475223E2,5.442383E0,7.510742E0,8.365421E0,3.3973718E2,4.8753723E1,7.238977E1,0E0,0E0,7.392578E-1,0E0,0E0,6.349457E0,0E0,2.3618896E1,3.397912E1,1.1956299E1,3.565342E1,0E0,0E0,0E0,0E0,0E0,8.6888596E1,0E0,7.1424904E0,4.5528805E1,0E0,0E0,5.9726334E-1,0E0,0E0,0E0,0E0,0E0,0E0,0E0,0E0],"parents":[2147483647,0,0,1,1,2,2,3,3,4,4,5,5,6,6,7,7,8,8,9,9,12,12,15,15,17,17,18,18,19,19,20,20,26,26,28,28,29,29,32,32],"right_children":[2,4,6,8,10,12,14,16,18,20,-1,-1,22,-1,-1,24,-1,26,28,30,32,-1,-1,-1,-1,-1,34,-1,36,38,-1,-1,40,-1,-1,-1,-1,-1,-1,-1,-1],"split_conditions":[-9.72766E-1,-6.516428E-2,-6.513769E-2,-1.5768267E-1,-1.5143621E-4,-4.8764758E-2,-8.246606E-2,-1.7886791E-2,6.6721306E0,3.6201823E0,-3.9254373E-1,-1.862407E-1,-1.5689193E-1,2.9961267E-1,-3.6994627E-1,1.215646E0,-4.059699E-1,1.2152896E0,1.2055156E0,-2.3640888E0,1.653388E0,3.1790495E-1,3.7470065E-2,3.1682307E-1,-2.3293534E-1,-3.884696E-1,1.2153405E0,-3.540571E-1,1.215646E0,1.2055156E0,-3.8761047E-1,-3.4210312E-1,6.07422E-1,3.1013417E-1,-3.2946277E-1,4.5703056E-1,-2.1307327E-1,-3.824292E-1,3.1939277E-1,5.3023803E-1,1.8690759E-1],"split_indices":[29,4,4,22,9,28,6,51,1,6,0,0,23,0,0,0,0,0,0,29,2,0,0,0,0,0,0,0,0,0,0,0,13,0,0,0,0,0,0,0,0],"split_type":[0,0,0,0,0,0,0,0,0,0,0,0,0,0,0,0,0,0,0,0,0,0,0,0,0,0,0,0,0,0,0,0,0,0,0,0,0,0,0,0,0],"sum_hessian":[1.9902715E4,5.9528394E3,1.3949876E4,1.0445531E3,4.908286E3,1.3935137E4,1.4739193E1,3.523736E2,6.921795E2,6.4846533E2,4.259821E3,2.0577445E0,1.3933079E4,1.1460043E0,1.3593189E1,2.784046E2,7.396898E1,6.710657E2,2.1113855E1,6.2985516E2,1.8610142E1,1.3931947E4,1.1315203E0,2.771719E2,1.2326967E0,4.7224332E2,1.9882233E2,7.9949694E0,1.3118885E1,4.3690178E1,5.86165E2,6.1238146E0,1.2486328E1,2.0607582E1,1.7821474E2,1.2094551E1,1.0243342E0,3.3573227E1,1.0116952E1,1.0488516E1,1.9978125E0],"tree_param":{"num_deleted":"0","num_feature":"79","num_nodes":"41","size_leaf_vector":"1"}},{"base_weights":[3.8319832E-1,-1.0708505E0,1.0406245E0,-5.057721E-1,-1.1925095E0,1.0429522E0,-8.837293E-1,5.2492696E-1,-9.9026954E-1,-1.0913614E0,-3.6232907E-1,-2.3834781E-1,1.043245E0,-3.3787233E-1,2.67E-1,1.0262357E0,-3.715251E-1,-3.560258E-1,-5.8552396E-1,-1.147582E0,5.785619E-1,-6.907246E-2,3.1302094E-1,3.1159166E-1,-2.0820062E-1,3.0016094E-1,-7.474327E-1,-6.297991E-1,-3.5618395E-1,-3.0842823E-1,1.3039759E0,-2.6112297E-1,3.3330536E-1,-3.5091507E-1,2.2903033E-1,4.2142454E-1,1.5125084E-1],"categories":[],"categories_nodes":[],"categories_segments":[],"categories_sizes":[],"default_left":[0,0,0,0,0,0,0,0,0,0,0,0,0,0,0,0,0,0,0,0,0,0,0,0,0,0,0,0,0,0,0,0,0,0,0,0,0],"id":3,"left_children":[1,3,5,7,9,11,13,15,17,19,-1,-1,21,-1,-1,23,-1,-1,25,27,29,-1,-1,-1,-1,-1,31,33,-1,-1,35,-1,-1,-1,-1,-1,-1],"loss_changes":[1.4538181E4,3.2494092E2,4.783203E1,4.2030984E2,4.6933594E0,6.4570312E0,6.6776495E0,2.3946347E2,4.480829E1,4.95683E1,0E0,0E0,2.3476562E0,0E0,0E0,5.209015E0,0E0,0E0,4.927339E1,9.617493E0,2.1888943E1,0E0,0E0,0E0,0E0,0E0,4.028486E1,2.9506794E1,0E0,0E0,3.0628586E-1,0E0,0E0,0E0,0E0,0E0,0E0],"parents":[2147483647,0,0,1,1,2,2,3,3,4,4,5,5,6,6,7,7,8,8,9,9,12,12,15,15,18,18,19,19,20,20,26,26,27,27,30,30],"right_children":[2,4,6,8,10,12,14,16,18,20,-1,-1,22,-1,-1,24,-1,-1,26,28,30,-1,-1,-1,-1,-1,32,34,-1,-1,36,-1,-1,-1,-1,-1,-1],"split_conditions":[-9.72766E-1,-6.516428E-2,-6.513769E-2,-1.5768267E-1,-1.5143621E-4,-1.9244756E-1,3.748348E-1,-1.7886791E-2,1.2152896E0,3.6201823E0,-3.6232907E-1,-2.3834781E-1,-9.180585E-2,-3.3787233E-1,2.67E-1,1.215646E0,-3.715251E-1,-3.560258E-1,1.2153405E0,-2.3640888E0,1.653388E0,-6.907246E-2,3.1302094E-1,3.1159166E-1,-2.0820062E-1,3.0016094E-1,6.6721306E0,1.2055156E0,-3.5618395E-1,-3.0842823E-1,6.07422E-1,-2.6112297E-1,3.3330536E-1,-3.5091507E-1,2.2903033E-1,4.2142454E-1,1.5125084E-1],"split_indices":[29,4,4,22,9,21,34,51,0,6,0,0,28,0,0,0,0,0,0,29,2,0,0,0,0,0,1,0,0,0,13,0,0,0,0,0,0],"split_type":[0,0,0,0,0,0,0,0,0,0,0,0,0,0,0,0,0,0,0,0,0,0,0,0,0,0,0,0,0,0,0,0,0,0,0,0,0],"sum_hessian":[1.5206255E4,4.7344043E3,1.0471851E4,8.3963745E2,3.894767E3,1.0459656E4,1.2193749E1,2.6845477E2,5.711827E2,5.199014E2,3.3748655E3,1.234436E0,1.0458422E4,1.1048231E1,1.1455178E0,2.0935449E2,5.9100277E1,3.8321808E2,1.8796461E2,5.0327084E2,1.6630625E1,1.1188438E0,1.0457304E4,2.082492E2,1.1052827E0,1.6930786E1,1.7103383E2,3.703854E1,4.662323E2,5.043334E0,1.1587291E1,1.6091728E2,1.0116552E1,2.6809517E1,1.0229024E1,9.618976E0,1.9683152E0],"tree_param":{"num_deleted":"0","num_feature":"79","num_nodes":"37","size_leaf_vector":"1"}},{"base_weights":[3.7624666E-1,-1.0057443E0,1.0286881E0,-4.5733857E-1,-1.1274189E0,1.0314977E0,-5.585021E-1,5.1343775E-1,-8.7765867E-1,-1.0193762E0,-3.4316966E-1,3.0948523E-1,6.8137534E-2,4.1774687E-1,-3.3904114E-1,3.033308E-1,-3.4961888E-1,-3.3402205E-1,-4.5725313E-1,-1.0750915E0,4.9602634E-1,1.2257886E-1,-8.9163196E-1,-5.596535E-1,-3.352156E-1,-2.8233486E-1,1.1117233E0,2.9989082E-1,-3.4912756E-1,-3.5765356E-1,1.611501E-2,-3.293802E-1,1.70623E-1,3.53494E-1,6.86249E-2],"categories":[],"categories_nodes":[],"categories_segments":[],"categories_sizes":[],"default_left":[0,0,0,0,0,0,0,0,0,0,0,0,0,0,0,0,0,0,0,0,0,0,0,0,0,0,0,0,0,0,0,0,0,0,0],"id":4,"left_children":[1,3,5,7,9,11,13,15,17,19,-1,-1,-1,-1,-1,-1,-1,-1,21,23,25,27,29,31,-1,-1,33,-1,-1,-1,-1,-1,-1,-1,-1],"loss_changes":[1.0399488E4,2.4630469E2,3.551367E1,2.7520117E2,4.2233887E0,5.185547E-1,1.7737135E1,1.7168904E2,4.6098724E1,3.5128357E1,0E0,0E0,0E0,0E0,0E0,0E0,0E0,0E0,4.3092194E1,7.9970703E0,1.450888E1,8.461605E1,2.7818962E1,2.0059216E1,0E0,0E0,3.8368988E-1,0E0,0E0,0E0,0E0,0E0,0E0,0E0,0E0],"parents":[2147483647,0,0,1,1,2,2,3,3,4,4,5,5,6,6,7,7,8,8,9,9,18,18,19,19,20,20,21,21,22,22,23,23,26,26],"right_children":[2,4,6,8,10,12,14,16,18,20,-1,-1,-1,-1,-1,-1,-1,-1,22,24,26,28,30,32,-1,-1,34,-1,-1,-1,-1,-1,-1,-1,-1],"split_conditions":[-9.72766E-1,-6.516428E-2,-1.7357814E-1,-1.5768267E-1,-1.5143621E-4,-6.513769E-2,-8.2691304E-2,-1.7886791E-2,1.2152896E0,3.6201823E0,-3.4316966E-1,3.0948523E-1,6.8137534E-2,4.1774687E-1,-3.3904114E-1,3.033308E-1,-3.4961888E-1,-3.3402205E-1,4.308357E-1,-2.3640888E0,1.653388E0,1.215646E0,3.428679E-2,1.2055156E0,-3.352156E-1,-2.8233486E-1,1.5829758E-1,2.9989082E-1,-3.4912756E-1,-3.5765356E-1,1.611501E-2,-3.293802E-1,1.70623E-1,3.53494E-1,6.86249E-2],"split_indices":[29,4,1,22,9,4,5,51,0,6,0,0,0,0,0,0,0,0,21,29,2,0,12,0,0,0,12,0,0,0,0,0,0,0,0],"split_type":[0,0,0,0,0,0,0,0,0,0,0,0,0,0,0,0,0,0,0,0,0,0,0,0,0,0,0,0,0,0,0,0,0,0,0],"sum_hessian":[1.1531462E4,3.69796E3,7.8335015E3,6.723476E2,3.0256125E3,7.8200083E3,1.3493036E1,2.0308302E2,4.6926456E2,4.0874237E2,2.61687E3,7.8185625E3,1.4459639E0,2.7321668E0,1.0760869E1,1.569541E2,4.612893E1,2.996073E2,1.6965727E2,3.9452768E2,1.4214674E1,7.297036E1,9.668692E1,3.0996973E1,3.635307E2,4.1048083E0,1.0109866E1,4.3520126E1,2.9450233E1,7.316508E1,2.3521841E1,2.1004274E1,9.992699E0,9.089866E0,1.0200002E0],"tree_param":{"num_deleted":"0","num_feature":"79","num_nodes":"35","size_leaf_vector":"1"}},{"base_weights":[3.7094522E-1,-9.629511E-1,1.0199993E0,-4.312385E-1,-1.0828422E0,1.0229423E0,-4.9302015E-1,5.011085E-1,-8.185431E-1,-9.644017E-1,-3.3035204E-1,3.069369E-1,5.5249047E-2,3.5220653E-1,-3.1565157E-1,9.918938E-1,-3.3430707E-1,-3.1765568E-1,-4.127276E-1,-1.0201151E0,4.2858487E-1,3.044754E-1,-2.180257E-1,-5.7652123E-2,-3.410569E-1,-1.0505769E0,-1.8389621E-1,-2.6034456E-1,9.6596134E-1,3.167633E-1,-2.458675E-1,-2.792394E-2,-3.1667185E-1,3.71197E-1,-2.592454E-1,3.3085433E-1,6.720827E-2],"categories":[],"categories_nodes":[],"categories_segments":[],"categories_sizes":[],"default_left":[0,0,0,0,0,0,0,0,0,0,0,0,0,0,0,0,0,0,0,0,0,0,0,0,0,0,0,0,0,0,0,0,0,0,0,0,0],"id":5,"left_children":[1,3,5,7,9,11,13,15,17,19,-1,-1,-1,-1,-1,21,-1,-1,23,25,27,-1,-1,29,-1,31,33,-1,35,-1,-1,-1,-1,-1,-1,-1,-1],"loss_changes":[7.524507E3,1.8088843E2,2.6536133E1,1.9002676E2,3.9768066E0,6.958008E-1,1.2443203E1,1.2378516E2,3.577954E1,2.5201965E1,0E0,0E0,0E0,0E0,0E0,5.454651E0,0E0,0E0,3.586978E1,7.6300964E0,9.878053E0,0E0,0E0,8.132017E1,0E0,1.3182678E0,1.2677411E1,0E0,7.326555E-1,0E0,0E0,0E0,0E0,0E0,0E0,0E0,0E0],"parents":[2147483647,0,0,1,1,2,2,3,3,4,4,5,5,6,6,7,7,8,8,9,9,15,15,18,18,19,19,20,20,23,23,25,25,26,26,28,28],"right_children":[2,4,6,8,10,12,14,16,18,20,-1,-1,-1,-1,-1,22,-1,-1,24,26,28,-1,-1,30,-1,32,34,-1,36,-1,-1,-1,-1,-1,-1,-1,-1],"split_conditions":[-9.72766E-1,-6.516428E-2,-1.7357814E-1,-1.5768267E-1,-1.5143621E-4,-6.513769E-2,-8.2691304E-2,-1.7886791E-2,1.2152896E0,3.6201823E0,-3.3035204E-1,3.069369E-1,5.5249047E-2,3.5220653E-1,-3.1565157E-1,1.215646E0,-3.3430707E-1,-3.1765568E-1,1.215646E0,3.7006547E0,1.653388E0,3.044754E-1,-2.180257E-1,6.6456556E0,-3.410569E-1,-7.453838E-3,5.64899E0,-2.6034456E-1,6.07422E-1,3.167633E-1,-2.458675E-1,-2.792394E-2,-3.1667185E-1,3.71197E-1,-2.592454E-1,3.3085433E-1,6.720827E-2],"split_indices":[29,4,1,22,9,4,5,51,0,6,0,0,0,0,0,0,0,0,0,1,2,0,0,1,0,10,1,0,13,0,0,0,0,0,0,0,0],"split_type":[0,0,0,0,0,0,0,0,0,0,0,0,0,0,0,0,0,0,0,0,0,0,0,0,0,0,0,0,0,0,0,0,0,0,0,0,0],"sum_hessian":[8.688973E3,2.843893E3,5.845079E3,5.24105E2,2.319788E3,5.834055E3,1.102401E1,1.5373334E2,3.703716E2,3.181009E2,2.0016873E3,5.832579E3,1.4759966E0,2.492696E0,8.531314E0,1.1820741E2,3.552592E1,2.3161089E2,1.3876074E2,3.061249E2,1.1975978E1,1.1704882E2,1.1585932E0,9.383064E1,4.4930107E1,2.95118E2,1.1006904E1,3.329288E0,8.64669E0,3.7962467E1,5.5868176E1,1.6337306E0,2.9348428E2,3.297891E0,7.7090125E0,6.889189E0,1.7575014E0],"tree_param":{"num_deleted":"0","num_feature":"79","num_nodes":"37","size_leaf_vector":"1"}},{"base_weights":[3.668529E-1,-9.2948604E-1,1.0135567E0,-4.0753695E-1,-1.049408E0,1.0166415E0,-4.3861172E-1,4.914971E-1,-7.650797E-1,-9.10318E-1,-3.2144988E-1,3.0507195E-1,4.485714E-2,3.0683064E-1,-2.96033E-1,9.79373E-1,-3.225196E-1,-3.0419782E-1,-3.6733577E-1,-1.2484389E-1,-3.0785078E-1,3.0176562E-1,-1.9600871E-1,-3.9618067E-2,-3.2669175E-1,-3.10681E-1,6.311723E-1,3.038349E-1,-2.0125906E-1,4.0209454E-1,-4.7515061E-1],"categories":[],"categories_nodes":[],"categories_segments":[],"categories_sizes":[],"default_left":[0,0,0,0,0,0,0,0,0,0,0,0,0,0,0,0,0,0,0,0,0,0,0,0,0,0,0,0,0,0,0],"id":6,"left_children":[1,3,5,7,9,11,13,15,17,19,-1,-1,-1,-1,-1,21,-1,-1,23,25,-1,-1,-1,27,-1,-1,29,-1,-1,-1,-1],"loss_changes":[5.4721875E3,1.355653E2,1.9953125E1,1.3138174E2,4.451294E0,8.461914E-1,8.9634285E0,9.01485E1,2.853476E1,2.2503952E1,0E0,0E0,0E0,0E0,0E0,4.5277176E0,0E0,0E0,2.6907238E1,2.3448847E1,0E0,0E0,0E0,5.3431015E1,0E0,0E0,3.1513554E1,0E0,0E0,0E0,0E0],"parents":[2147483647,0,0,1,1,2,2,3,3,4,4,5,5,6,6,7,7,8,8,9,9,15,15,18,18,19,19,23,23,26,26],"right_children":[2,4,6,8,10,12,14,16,18,20,-1,-1,-1,-1,-1,22,-1,-1,24,26,-1,-1,-1,28,-1,-1,30,-1,-1,-1,-1],"split_conditions":[-9.72766E-1,-6.516428E-2,-1.7357814E-1,-1.5768267E-1,-1.5143621E-4,-6.513769E-2,-8.2691304E-2,-1.7886791E-2,1.2152896E0,-2.3640888E0,-3.2144988E-1,3.0507195E-1,4.485714E-2,3.0683064E-1,-2.96033E-1,1.215646E0,-3.225196E-1,-3.0419782E-1,1.215646E0,1.2055156E0,-3.0785078E-1,3.0176562E-1,-1.9600871E-1,6.6456556E0,-3.2669175E-1,-3.10681E-1,1.215646E0,3.038349E-1,-2.0125906E-1,4.0209454E-1,-4.7515061E-1],"split_indices":[29,4,1,22,9,4,5,51,0,29,0,0,0,0,0,0,0,0,0,0,0,0,0,1,0,0,0,0,0,0,0],"split_type":[0,0,0,0,0,0,0,0,0,0,0,0,0,0,0,0,0,0,0,0,0,0,0,0,0,0,0,0,0,0,0],"sum_hessian":[6.5252275E3,2.171649E3,4.3535786E3,4.065549E2,1.7650941E3,4.3446494E3,8.929357E0,1.1557336E2,2.9098154E2,2.4770898E2,1.5173851E3,4.3431494E3,1.4998074E0,2.1995802E0,6.7297764E0,8.841349E1,2.7159864E1,1.7802313E2,1.12958405E2,3.210615E1,2.1560284E2,8.737856E1,1.0349314E0,7.840648E1,3.455192E1,1.439497E1,1.7711182E1,2.9170137E1,4.9236343E1,1.3715128E1,3.9960544E0],"tree_param":{"num_deleted":"0","num_feature":"79","num_nodes":"31","size_leaf_vector":"1"}},{"base_weights":[3.6330348E-1,-9.028974E-1,1.0086936E0,-3.8393107E-1,-1.025701E0,1.0119394E0,-3.9073354E-1,1.9016568E-1,-8.9017E-1,-8.737722E-1,-3.150741E-1,3.0369613E-1,3.645549E-2,2.7219492E-1,-2.7838862E-1,4.6041444E-1,-3.134651E-1,-6.909709E-1,-3.0037394E-1,-3.0584234E-1,-2.7115455E-1,6.6235083E-1,-3.0870998E-1,-3.020339E-1,-2.951937E-1,8.7757957E-1,-9.437884E-1,-2.0343025E-1,2.3702607E-1,2.8972217E-1,-2.2104377E-1,3.603674E-1,-1.4441675E-1,-3.3218548E-1,-5.5193607E-2],"categories":[],"categories_nodes":[],"categories_segments":[],"categories_sizes":[],"default_left":[0,0,0,0,0,0,0,0,0,0,0,0,0,0,0,0,0,0,0,0,0,0,0,0,0,0,0,0,0,0,0,0,0,0,0],"id":7,"left_children":[1,3,5,7,9,11,13,15,17,19,-1,-1,-1,-1,-1,21,-1,23,-1,-1,25,27,-1,-1,29,31,33,-1,-1,-1,-1,-1,-1,-1,-1],"loss_changes":[3.9969636E3,1.04856445E2,1.5110107E1,9.247654E1,4.0603027E0,9.736328E-1,6.5726647E0,5.043134E1,3.0465393E0,1.6548141E1,0E0,0E0,0E0,0E0,0E0,3.782139E1,0E0,7.66617E0,0E0,0E0,3.0708828E1,1.9258541E1,0E0,0E0,1.7245007E1,7.087471E0,2.8860188E0,0E0,0E0,0E0,0E0,0E0,0E0,0E0,0E0],"parents":[2147483647,0,0,1,1,2,2,3,3,4,4,5,5,6,6,7,7,8,8,9,9,15,15,17,17,20,20,21,21,24,24,25,25,26,26],"right_children":[2,4,6,8,10,12,14,16,18,20,-1,-1,-1,-1,-1,22,-1,24,-1,-1,26,28,-1,-1,30,32,34,-1,-1,-1,-1,-1,-1,-1,-1],"split_conditions":[-9.72766E-1,-6.516428E-2,-1.7357814E-1,4.308357E-1,-1.5143621E-4,-6.513769E-2,-8.2691304E-2,-1.7886791E-2,4.3106955E-1,1.2152896E0,-3.150741E-1,3.0369613E-1,3.645549E-2,2.7219492E-1,-2.7838862E-1,1.215646E0,-3.134651E-1,-1.249024E-1,-3.0037394E-1,-3.0584234E-1,1.215646E0,-1.801078E-1,-3.0870998E-1,-3.020339E-1,-6.1887274E-3,5.64899E0,2.7462332E0,-2.0343025E-1,2.3702607E-1,2.8972217E-1,-2.2104377E-1,3.603674E-1,-1.4441675E-1,-3.3218548E-1,-5.5193607E-2],"split_indices":[29,4,1,21,9,4,5,51,1,0,0,0,0,0,0,0,0,1,0,0,0,1,0,0,10,1,13,0,0,0,0,0,0,0,0],"split_type":[0,0,0,0,0,0,0,0,0,0,0,0,0,0,0,0,0,0,0,0,0,0,0,0,0,0,0,0,0,0,0,0,0,0,0],"sum_hessian":[4.888971E3,1.6504764E3,3.2384949E3,3.1661075E2,1.3338657E3,3.231277E3,7.2178464E0,1.486545E2,1.6795624E2,1.9061806E2,1.1432477E3,3.2297583E3,1.5187736E0,1.9111785E0,5.306668E0,1.22480896E2,2.6173592E1,6.271209E1,1.05244156E2,1.5294658E2,3.7671474E1,1.08346756E2,1.4134139E1,3.4021206E1,2.8690886E1,1.3799607E1,2.3871866E1,9.051579E0,9.929518E1,7.1341763E0,2.155671E1,1.1239049E1,2.560558E0,1.9268366E1,4.603501E0],"tree_param":{"num_deleted":"0","num_feature":"79","num_nodes":"35","size_leaf_vector":"1"}},{"base_weights":[3.589247E-1,-8.7678766E-1,1.0049278E0,-3.591619E-1,-1.0071464E0,1.0081493E0,-4.2927158E-1,5.03036E-1,-6.814972E-1,-8.407208E-1,-3.1036463E-1,3.0272448E-1,-1.7573497E-1,2.0275496E-1,-2.5721192E-1,2.8844306E-1,-3.0307335E-1,-7.706884E-1,6.8772304E-1,-2.976417E-1,-2.5132567E-1,-2.8228414E-1,-4.7893983E-1,1.0594321E0,-2.1936558E-1,7.8812E-1,-8.7158144E-1,-2.3971815E-2,-3.0115798E-1,5.5562798E-2,3.4823325E-1,3.3029312E-1,-1.2617669E-1,-3.19289E-1,-4.3557838E-2],"categories":[],"categories_nodes":[],"categories_segments":[],"categories_sizes":[],"default_left":[0,0,0,0,0,0,0,0,0,0,0,0,0,0,0,0,0,0,0,0,0,0,0,0,0,0,0,0,0,0,0,0,0,0,0],"id":8,"left_children":[1,3,5,7,9,11,13,15,17,19,-1,-1,-1,-1,-1,-1,-1,21,23,-1,25,-1,27,29,-1,31,33,-1,-1,-1,-1,-1,-1,-1,-1],"loss_changes":[2.9273032E3,8.459662E1,1.1557373E1,7.1169525E1,3.7144775E0,4.161865E0,3.464312E0,4.9481586E1,2.3235481E1,1.2909866E1,0E0,0E0,0E0,0E0,0E0,0E0,0E0,8.243301E0,7.0505414E0,0E0,2.0981012E1,0E0,1.38566265E1,6.565752E-1,0E0,5.110064E0,2.6715975E0,0E0,0E0,0E0,0E0,0E0,0E0,0E0,0E0],"parents":[2147483647,0,0,1,1,2,2,3,3,4,4,5,5,6,6,7,7,8,8,9,9,17,17,18,18,20,20,22,22,23,23,25,25,26,26],"right_children":[2,4,6,8,10,12,14,16,18,20,-1,-1,-1,-1,-1,-1,-1,22,24,-1,26,-1,28,30,-1,32,34,-1,-1,-1,-1,-1,-1,-1,-1],"split_conditions":[-9.72766E-1,-6.516428E-2,4.040011E-1,-1.5768267E-1,-1.5143621E-4,-1.5689193E-1,-8.269185E-2,-1.7886791E-2,6.6721306E0,1.2152896E0,-3.1036463E-1,3.0272448E-1,-1.7573497E-1,2.0275496E-1,-2.5721192E-1,2.8844306E-1,-3.0307335E-1,1.2152896E0,-5.1340416E-2,-2.976417E-1,1.215646E0,-2.8228414E-1,6.6456556E0,1.2153405E0,-2.1936558E-1,5.64899E0,2.7462332E0,-2.3971815E-2,-3.0115798E-1,5.5562798E-2,3.4823325E-1,3.3029312E-1,-1.2617669E-1,-3.19289E-1,-4.3557838E-2],"split_indices":[29,4,1,22,9,23,5,51,1,0,0,0,0,0,0,0,0,0,20,0,0,0,1,0,0,1,13,0,0,0,0,0,0,0,0],"split_type":[0,0,0,0,0,0,0,0,0,0,0,0,0,0,0,0,0,0,0,0,0,0,0,0,0,0,0,0,0,0,0,0,0,0,0],"sum_hessian":[3.6649368E3,1.25807E3,2.4068667E3,2.5384854E2,1.00422144E3,2.401769E3,5.0977206E0,6.892474E1,1.849238E2,1.4645029E2,8.577712E2,2.4007317E3,1.0373043E0,1.2617823E0,3.8359382E0,5.3179058E1,1.5745689E1,1.7402492E2,1.0898872E1,1.1597301E2,3.0477285E1,1.0848819E2,6.5536736E1,8.837219E0,2.0616534E0,1.1288687E1,1.91886E1,3.7887577E1,2.764916E1,1.2117709E0,7.625448E0,9.038364E0,2.2503219E0,1.4797537E1,4.3910627E0],"tree_param":{"num_deleted":"0","num_feature":"79","num_nodes":"35","size_leaf_vector":"1"}},{"base_weights":[3.5493344E-1,-8.504818E-1,1.0018669E0,-3.2850674E-1,-9.914216E-1,1.0053029E0,-4.4689563E-1,4.8577023E-1,-6.1020774E-1,-8.07107E-1,-3.0675334E-1,3.018973E-1,1.5645523E-1,-2.4001302E-1,1.3566786E-1,9.3424004E-1,-2.9367384E-1,-2.700259E-1,-2.3290153E-1,-9.6511936E-1,-2.3125745E-1,-1.693878E-1,2.1398473E-1,2.9391736E-1,5.3764313E-1,1.1357451E-1,-3.054139E-1,-2.9850483E-1,-6.413143E-1,7.1346366E-1,-7.9735076E-1,-4.1462616E-3,2.350509E-1,2.8373212E-1,-1.3217108E-1,2.811262E-1,-2.761188E-1,3.0668354E-1,-1.09618194E-1,-3.06472E-1,-3.413401E-2],"categories":[],"categories_nodes":[],"categories_segments":[],"categories_sizes":[],"default_left":[0,0,0,0,0,0,0,0,0,0,0,0,0,0,0,0,0,0,0,0,0,0,0,0,0,0,0,0,0,0,0,0,0,0,0,0,0,0,0,0,0],"id":9,"left_children":[1,3,5,7,9,11,13,15,17,19,-1,-1,21,-1,-1,23,-1,-1,25,27,29,-1,-1,-1,31,33,-1,-1,35,37,39,-1,-1,-1,-1,-1,-1,-1,-1,-1,-1],"loss_changes":[2.143653E3,7.031433E1,9.352661E0,4.746724E1,3.5043335E0,1.3897705E0,1.9253188E0,3.5999992E1,1.65495E1,1.0131546E1,0E0,0E0,1.739337E0,0E0,0E0,2.2015E-1,0E0,0E0,1.8593283E1,2.2328949E-1,1.4376311E1,0E0,0E0,0E0,8.8888E-1,2.2564734E1,0E0,0E0,5.4147882E0,3.772368E0,2.430585E0,0E0,0E0,0E0,0E0,0E0,0E0,0E0,0E0,0E0,0E0],"parents":[2147483647,0,0,1,1,2,2,3,3,4,4,5,5,6,6,7,7,8,8,9,9,12,12,15,15,18,18,19,19,20,20,24,24,25,25,28,28,29,29,30,30],"right_children":[2,4,6,8,10,12,14,16,18,20,-1,-1,22,-1,-1,24,-1,-1,26,28,30,-1,-1,-1,32,34,-1,-1,36,38,40,-1,-1,-1,-1,-1,-1,-1,-1,-1,-1],"split_conditions":[-9.72766E-1,-6.516428E-2,-6.513769E-2,-1.5768267E-1,-1.5143621E-4,-1.7357814E-1,-3.967017E-1,-1.7886791E-2,1.2152896E0,1.2152896E0,-3.0675334E-1,3.018973E-1,-2.9875375E-2,-2.4001302E-1,1.3566786E-1,1.2153405E0,-2.9367384E-1,-2.700259E-1,1.215646E0,2.2856839E0,1.215646E0,-1.693878E-1,2.1398473E-1,2.9391736E-1,2.0217484E-1,6.6456556E0,-3.054139E-1,-2.9850483E-1,2.8134408E0,5.64899E0,2.7462332E0,-4.1462616E-3,2.350509E-1,2.8373212E-1,-1.3217108E-1,2.811262E-1,-2.761188E-1,3.0668354E-1,-1.09618194E-1,-3.06472E-1,-3.413401E-2],"split_indices":[29,4,4,22,9,1,33,51,0,0,0,0,3,0,0,0,0,0,0,15,0,0,0,0,1,1,0,0,14,1,13,0,0,0,0,0,0,0,0,0,0],"split_type":[0,0,0,0,0,0,0,0,0,0,0,0,0,0,0,0,0,0,0,0,0,0,0,0,0,0,0,0,0,0,0,0,0,0,0,0,0,0,0,0,0],"sum_hessian":[2.7468022E3,9.5921185E2,1.7875903E3,2.0464253E2,7.5456934E2,1.7836663E3,3.9241128E0,5.2413403E1,1.5222913E2,1.1279913E2,6.417702E2,1.7813374E3,2.3288682E0,2.8966079E0,1.027505E0,4.040423E1,1.2009174E1,8.530502E1,6.692411E1,8.798122E1,2.4817919E1,1.0086626E0,1.3202057E0,3.4928104E1,5.4761224E0,4.702696E1,1.989715E1,7.86469E1,9.334322E0,9.201585E0,1.5616333E1,1.9796196E0,3.4965029E0,1.8514967E1,2.851199E1,1.0482097E0,8.286113E0,7.1946225E0,2.0069623E0,1.1386806E1,4.2295275E0],"tree_param":{"num_deleted":"0","num_feature":"79","num_nodes":"41","size_leaf_vector":"1"}},{"base_weights":[3.5148105E-1,-8.271227E-1,9.992832E-1,-3.0191162E-1,-9.769931E-1,1.0035057E0,-2.894464E-1,1.5847522E-1,-7.4158674E-1,-7.8019476E-1,-3.0443656E-1,3.0130023E-1,2.4382697E-2,2.0206523E-1,-2.3421906E-1,3.6282757E-1,-2.8857648E-1,-4.986163E-1,-8.814427E-1,-9.28636E-1,-2.9184443E-1,-1.4835453E-1,2.731693E-1,-2.7599812E-1,-1.728561E-2,-6.768909E-1,-2.9834455E-1,-9.412212E-1,-5.487197E-3,6.476145E-1,-7.656618E-1,2.4948215E-1,-2.9607466E-1,2.5946388E-1,-1.257068E-1,-2.6797116E-1,2.1386091E-1,-2.9327297E-1,-1.7019649E-1,2.8670704E-1,-9.4784535E-2,-2.9607233E-1,-2.6597917E-2],"categories":[],"categories_nodes":[],"categories_segments":[],"categories_sizes":[],"default_left":[0,0,0,0,0,0,0,0,0,0,0,0,0,0,0,0,0,0,0,0,0,0,0,0,0,0,0,0,0,0,0,0,0,0,0,0,0,0,0,0,0,0,0],"id":10,"left_children":[1,3,5,7,9,11,13,15,17,19,-1,-1,-1,-1,-1,21,-1,23,25,27,29,31,-1,-1,33,35,-1,37,-1,39,41,-1,-1,-1,-1,-1,-1,-1,-1,-1,-1,-1,-1],"loss_changes":[1.5717917E3,5.7192963E1,7.5181885E0,3.3230682E1,3.4312744E0,9.300537E-1,2.9452283E0,1.8833683E1,2.409832E0,6.6734467E0,0E0,0E0,0E0,0E0,0E0,1.9456547E1,0E0,6.664111E0,5.272598E-1,8.1923676E-1,1.1085276E1,3.0859606E1,0E0,0E0,6.172105E0,7.1340895E0,0E0,4.2400742E-1,0E0,2.8303528E0,2.349781E0,0E0,0E0,0E0,0E0,0E0,0E0,0E0,0E0,0E0,0E0,0E0,0E0],"parents":[2147483647,0,0,1,1,2,2,3,3,4,4,5,5,6,6,7,7,8,8,9,9,15,15,17,17,18,18,19,19,20,20,21,21,24,24,25,25,27,27,29,29,30,30],"right_children":[2,4,6,8,10,12,14,16,18,20,-1,-1,-1,-1,-1,22,-1,24,26,28,30,32,-1,-1,34,36,-1,38,-1,40,42,-1,-1,-1,-1,-1,-1,-1,-1,-1,-1,-1,-1],"split_conditions":[-9.72766E-1,-6.516428E-2,-1.7357814E-1,4.308357E-1,-8.074423E-2,-6.513769E-2,-8.2691304E-2,-1.7886791E-2,4.3106955E-1,1.2152896E0,-3.0443656E-1,3.0130023E-1,2.4382697E-2,2.0206523E-1,-2.3421906E-1,4.5516998E-1,-2.8857648E-1,-1.249024E-1,-1.4550141E-2,5.4655437E0,1.215646E0,-6.0956486E-2,2.731693E-1,-2.7599812E-1,-6.1887274E-3,-7.7249333E-3,-2.9834455E-1,2.2856839E0,-5.487197E-3,5.64899E0,2.7462332E0,2.4948215E-1,-2.9607466E-1,2.5946388E-1,-1.257068E-1,-2.6797116E-1,2.1386091E-1,-2.9327297E-1,-1.7019649E-1,2.8670704E-1,-9.4784535E-2,-2.9607233E-1,-2.6597917E-2],"split_indices":[29,4,1,21,7,4,5,51,1,0,0,0,0,0,0,1,0,1,20,57,0,13,0,0,10,10,0,15,0,1,13,0,0,0,0,0,0,0,0,0,0,0,0],"split_type":[0,0,0,0,0,0,0,0,0,0,0,0,0,0,0,0,0,0,0,0,0,0,0,0,0,0,0,0,0,0,0,0,0,0,0,0,0,0,0,0,0,0,0],"sum_hessian":[2.0565781E3,7.29343E2,1.327235E3,1.6258586E2,5.6675714E2,1.3231212E3,4.113807E0,7.9734695E1,8.285117E1,9.4797195E1,4.7195993E2,1.3218447E3,1.2765036E0,1.264391E0,2.8494163E0,6.800688E1,1.1727808E1,3.193537E1,5.0915806E1,7.20078E1,2.2789402E1,3.555443E1,3.2452457E1,1.6542236E1,1.5393133E1,2.0609549E1,3.0306257E1,7.099243E1,1.0153606E0,7.517438E0,1.5271964E1,1.6398756E1,1.915567E1,4.4558296E0,1.09373045E1,1.8142544E1,2.4670045E0,6.3229862E1,7.7625737E0,5.7024045E0,1.8150334E0,1.1165341E1,4.1066227E0],"tree_param":{"num_deleted":"0","num_feature":"79","num_nodes":"43","size_leaf_vector":"1"}},{"base_weights":[3.4715575E-1,-8.0551225E-1,9.9700916E-1,-2.8472924E-1,-9.6253675E-1,1.0013843E0,-3.4122178E-1,4.5259237E-1,-5.218759E-1,-7.404937E-1,-1.0070734E0,3.0082387E-1,4.27278E-2,-2.1136059E-1,1.0957292E-1,8.688679E-1,-2.7302903E-1,-6.3222E-1,7.0612943E-1,-8.945804E-1,-2.640809E-1,-5.7209843E-1,-3.0380774E-1,2.8889188E-1,-1.9884376E-1,-7.967358E-1,-3.9861947E-1,2.8155494E-1,-1.5706739E-1,-9.103441E-1,-4.6723676E-3,5.875005E-1,-6.946438E-1,1.4440222E-1,-2.520154E-1,-1.984346E-1,-2.9116908E-1,-1.2187537E-2,-2.7021492E-1,-2.8700644E-1,-1.4804818E-1,2.6871467E-1,-8.164794E-2,-2.8488436E-1,-2.0632494E-2],"categories":[],"categories_nodes":[],"categories_segments":[],"categories_sizes":[],"default_left":[0,0,0,0,0,0,0,0,0,0,0,0,0,0,0,0,0,0,0,0,0,0,0,0,0,0,0,0,0,0,0,0,0,0,0,0,0,0,0,0,0,0,0,0,0],"id":11,"left_children":[1,3,5,7,9,11,13,15,17,19,21,-1,-1,-1,-1,23,-1,25,27,29,31,33,-1,-1,-1,35,37,-1,-1,39,-1,41,43,-1,-1,-1,-1,-1,-1,-1,-1,-1,-1,-1,-1],"loss_changes":[1.1555502E3,4.5220398E1,6.115967E0,2.3020103E1,3.4772034E0,1.0076294E0,1.273649E0,1.9082474E1,1.3868935E1,5.278248E0,2.8320312E-1,0E0,0E0,0E0,0E0,4.272316E0,0E0,3.1956673E0,2.9601955E0,7.665291E-1,7.6596518E0,2.3235986E0,0E0,0E0,0E0,5.9592056E-1,7.1134553E0,0E0,0E0,5.9682846E-1,0E0,2.1470675E0,2.104004E0,0E0,0E0,0E0,0E0,0E0,0E0,0E0,0E0,0E0,0E0,0E0,0E0],"parents":[2147483647,0,0,1,1,2,2,3,3,4,4,5,5,6,6,7,7,8,8,9,9,10,10,15,15,17,17,18,18,19,19,20,20,21,21,25,25,26,26,29,29,31,31,32,32],"right_children":[2,4,6,8,10,12,14,16,18,20,22,-1,-1,-1,-1,24,-1,26,28,30,32,34,-1,-1,-1,36,38,-1,-1,40,-1,42,44,-1,-1,-1,-1,-1,-1,-1,-1,-1,-1,-1,-1],"split_conditions":[-9.72766E-1,-6.516428E-2,-6.513769E-2,-1.5768267E-1,-8.074423E-2,-1.7357814E-1,-3.9569026E-1,-1.7886791E-2,6.6721306E0,1.2152896E0,-1.5014684E-1,3.0082387E-1,4.27278E-2,-2.1136059E-1,1.0957292E-1,1.215646E0,-2.7302903E-1,1.2152896E0,-5.1340416E-2,5.4655437E0,1.215646E0,7.9755384E-1,-3.0380774E-1,2.8889188E-1,-1.9884376E-1,1.3026567E0,6.6456556E0,2.8155494E-1,-1.5706739E-1,2.2856839E0,-4.6723676E-3,5.64899E0,2.7462332E0,1.4440222E-1,-2.520154E-1,-1.984346E-1,-2.9116908E-1,-1.2187537E-2,-2.7021492E-1,-2.8700644E-1,-1.4804818E-1,2.6871467E-1,-8.164794E-2,-2.8488436E-1,-2.0632494E-2],"split_indices":[29,4,4,22,7,1,3,51,1,0,23,0,0,0,0,0,0,0,20,57,0,0,0,0,0,22,1,0,0,15,0,1,13,0,0,0,0,0,0,0,0,0,0,0,0],"split_type":[0,0,0,0,0,0,0,0,0,0,0,0,0,0,0,0,0,0,0,0,0,0,0,0,0,0,0,0,0,0,0,0,0,0,0,0,0,0,0,0,0,0,0,0,0],"sum_hessian":[1.5405841E3,5.553322E2,9.8525195E2,1.2930293E2,4.2602927E2,9.822923E2,2.9596741E0,3.1246078E1,9.8056854E1,7.412023E1,3.5190903E2,9.8057E2,1.7222633E0,1.9563261E0,1.0033479E0,2.4212124E1,7.033955E0,9.041744E1,7.639413E0,5.5342888E1,1.8777346E1,5.799284E0,3.4610974E2,2.3160463E1,1.0516602E0,5.1639233E1,3.877821E1,6.624328E0,1.0150849E0,5.4332855E1,1.0100335E0,6.1833057E0,1.259404E1,1.0144962E0,4.784788E0,3.1740974E1,1.9898256E1,2.3268623E1,1.5509584E1,4.7731228E1,6.6016283E0,4.5205917E0,1.662714E0,8.580985E0,4.0130544E0],"tree_param":{"num_deleted":"0","num_feature":"79","num_nodes":"45","size_leaf_vector":"1"}},{"base_weights":[3.4106463E-1,-7.755471E-1,9.9443775E-1,-3.2970458E-1,-9.759928E-1,1.0001181E0,-2.3529828E-1,2.6472506E-1,-4.8224774E-1,-7.86069E-1,-9.9988866E-1,3.0042383E-1,2.9707948E-2,1.798869E-1,-2.1326171E-1,6.922247E-1,-2.6985756E-1,-7.6545024E-1,-1.7261276E-1,-5.5277213E-3,-8.7977964E-1,7.7237956E-2,-3.022788E-1,2.6023906E-1,-2.3328653E-1,-8.58453E-1,-5.337911E-1,2.0897658E-1,-7.887154E-1,-4.8930782E-1,2.2226234E-1,-2.8632274E-1,-4.9286374E-1,-8.214081E-2,-2.945979E-1,2.9720637E-1,-2.4918206E-1,2.6900944E-1,-8.8717714E-2,-2.9189017E-1,-2.097683E-3,-1.8946464E-1,-1.7182842E-2,2.9185376E-1,-2.6130852E-1],"categories":[],"categories_nodes":[],"categories_segments":[],"categories_sizes":[],"default_left":[0,0,0,0,0,0,0,0,0,0,0,0,0,0,0,0,0,0,0,0,0,0,0,0,0,0,0,0,0,0,0,0,0,0,0,0,0,0,0,0,0,0,0,0,0],"id":12,"left_children":[1,3,5,7,9,11,13,15,17,19,21,-1,-1,-1,-1,23,-1,25,27,29,31,-1,-1,-1,-1,33,35,37,39,41,-1,-1,43,-1,-1,-1,-1,-1,-1,-1,-1,-1,-1,-1,-1],"loss_changes":[8.4747186E2,3.801413E1,5.352722E0,1.2328595E1,5.546875E-1,7.51709E-1,2.0851738E0,1.4620338E1,9.288452E0,2.7520504E0,2.766632E0,0E0,0E0,0E0,0E0,6.1185484E0,0E0,7.443886E-1,1.2533758E1,2.1847456E0,5.0110817E-1,0E0,0E0,0E0,0E0,2.4891567E0,9.254646E0,1.181641E1,2.9216938E0,1.8899637E-1,0E0,0E0,5.008918E0,0E0,0E0,0E0,0E0,0E0,0E0,0E0,0E0,0E0,0E0,0E0,0E0],"parents":[2147483647,0,0,1,1,2,2,3,3,4,4,5,5,6,6,7,7,8,8,9,9,10,10,15,15,17,17,18,18,19,19,20,20,25,25,26,26,27,27,28,28,29,29,32,32],"right_children":[2,4,6,8,10,12,14,16,18,20,22,-1,-1,-1,-1,24,-1,26,28,30,32,-1,-1,-1,-1,34,36,38,40,42,-1,-1,44,-1,-1,-1,-1,-1,-1,-1,-1,-1,-1,-1,-1],"split_conditions":[-9.72766E-1,-1.5689193E-1,-1.7357814E-1,-8.357489E-3,-8.074423E-2,-6.513769E-2,-8.2691304E-2,-1.7886791E-2,1.2152896E0,-5.917632E-3,-1.3559823E-1,3.0042383E-1,2.9707948E-2,1.798869E-1,-2.1326171E-1,1.215646E0,-2.6985756E-1,8.4708554E-1,1.215646E0,-6.59537E-3,2.2856839E0,7.7237956E-2,-3.022788E-1,2.6023906E-1,-2.3328653E-1,-7.6948116E-3,8.554341E-1,6.6456556E0,-5.723661E-3,9.118381E-1,2.2226234E-1,-2.8632274E-1,2.8134408E0,-8.214081E-2,-2.945979E-1,2.9720637E-1,-2.4918206E-1,2.6900944E-1,-8.8717714E-2,-2.9189017E-1,-2.097683E-3,-1.8946464E-1,-1.7182842E-2,2.9185376E-1,-2.6130852E-1],"split_indices":[29,23,1,10,7,4,5,51,0,10,23,0,0,0,0,0,0,0,0,10,15,0,0,0,0,10,0,1,28,0,0,0,14,0,0,0,0,0,0,0,0,0,0,0,0],"split_type":[0,0,0,0,0,0,0,0,0,0,0,0,0,0,0,0,0,0,0,0,0,0,0,0,0,0,0,0,0,0,0,0,0,0,0,0,0,0,0,0,0,0,0,0,0],"sum_hessian":[1.159557E3,4.2797046E2,7.3158655E2,1.3355498E2,2.9441547E2,7.284086E2,3.1779313E0,2.7123768E1,1.06431206E2,3.669105E1,2.5772443E2,7.272524E2,1.156232E0,1.0586019E0,2.1193295E0,2.0135624E1,6.988143E0,5.4819424E1,5.1611782E1,4.0464077E0,3.264464E1,1.3727429E0,2.5635168E2,1.8356895E1,1.7787278E0,3.718523E1,1.7634195E1,3.2279785E1,1.9331999E1,2.6641107E0,1.382297E0,2.6136623E1,6.508019E0,7.0478296E0,3.01374E1,2.4928606E0,1.51413355E1,1.3333922E1,1.8945864E1,1.5446598E1,3.8854005E0,1.6568145E0,1.0072963E0,1.0122283E0,5.4957905E0],"tree_param":{"num_deleted":"0","num_feature":"79","num_nodes":"45","size_leaf_vector":"1"}},{"base_weights":[3.3424035E-1,-7.408472E-1,9.941413E-1,-3.1900087E-1,-9.74979E-1,9.987931E-1,-1.1075238E-1,-8.3512455E-1,-1.1696538E-1,-7.014294E-1,-3.0097884E-1,3.0005074E-1,1.0708046E-1,-3.9677015E-1,-2.910734E-1,3.1230706E-1,-2.8714445E-1,8.047322E-2,-7.955429E-1,-2.643324E-1,2.3809493E-1,-3.9413944E-1,2.6277682E-1,-4.463875E-1,-2.833032E-1,-2.4359469E-1,-6.5018035E-2,-2.3061849E-1,2.2726654E-1],"categories":[],"categories_nodes":[],"categories_segments":[],"categories_sizes":[],"default_left":[0,0,0,0,0,0,0,0,0,0,0,0,0,0,0,0,0,0,0,0,0,0,0,0,0,0,0,0,0],"id":13,"left_children":[1,3,5,7,9,11,-1,13,15,17,-1,-1,-1,19,-1,-1,21,-1,23,-1,-1,25,-1,27,-1,-1,-1,-1,-1],"loss_changes":[6.2186035E2,3.263469E1,3.8119507E0,1.2472026E1,9.522095E-1,1.2109375E-1,0E0,1.6139984E0,1.7600195E1,2.3469906E0,0E0,0E0,0E0,6.2594986E0,0E0,0E0,9.96826E0,0E0,6.987648E-1,0E0,0E0,5.1246815E0,0E0,3.81895E0,0E0,0E0,0E0,0E0,0E0],"parents":[2147483647,0,0,1,1,2,2,3,3,4,4,5,5,7,7,8,8,9,9,13,13,16,16,18,18,21,21,23,23],"right_children":[2,4,6,8,10,12,-1,14,16,18,-1,-1,-1,20,-1,-1,22,-1,24,-1,-1,26,-1,28,-1,-1,-1,-1,-1],"split_conditions":[-7.155321E-1,-1.3559823E-1,-1.5689193E-1,2.2470707E-1,-8.074423E-2,-6.0956486E-2,-1.1075238E-1,-7.6948116E-3,2.821801E-1,7.467384E-2,-3.0097884E-1,3.0005074E-1,1.0708046E-1,-7.7249333E-3,-2.910734E-1,3.1230706E-1,6.6721306E0,8.047322E-2,-2.2476873E0,-2.643324E-1,2.3809493E-1,-1.249024E-1,2.6277682E-1,-1.9492744E0,-2.833032E-1,-2.4359469E-1,-6.5018035E-2,-2.3061849E-1,2.2726654E-1],"split_indices":[36,23,23,0,7,13,0,10,0,21,0,0,0,10,0,0,1,0,30,0,0,1,0,32,0,0,0,0,0],"split_type":[0,0,0,0,0,0,0,0,0,0,0,0,0,0,0,0,0,0,0,0,0,0,0,0,0,0,0,0,0],"sum_hessian":[8.744989E2,3.3256802E2,5.4193085E2,1.1954345E2,2.1302458E2,5.403545E2,1.5763937E0,3.274891E1,8.679455E1,2.237942E1,1.9064517E2,5.3864166E2,1.7128313E0,8.643673E0,2.4105236E1,1.0465371E1,7.632917E1,1.8162231E0,2.0563196E1,6.328624E0,2.3150487E0,7.050433E1,5.824843E0,7.340029E0,1.3223167E1,1.9947388E1,5.0556942E1,6.075011E0,1.2650181E0],"tree_param":{"num_deleted":"0","num_feature":"79","num_nodes":"29","size_leaf_vector":"1"}},{"base_weights":[3.247417E-1,-6.9335735E-1,9.895673E-1,-2.7385214E-1,-9.605502E-1,2.9945013E-1,-4.0310364E-2,-7.870791E-1,-9.572436E-2,-6.29479E-1,-2.997759E-1,2.1676508E-1,-2.0624144E-1,-3.3822098E-1,-2.8637278E-1,3.0882338E-1,-2.3489693E-1,1.6395763E-1,-7.530366E-1,-2.5325516E-1,1.5473212E-1,-6.864737E-1,2.1397725E-2,2.1588343E-1,-1.5963252E-1,-2.6711887E-1,-3.4088066E-1,-2.5732893E-1,1.1213725E-1,2.2344355E-1,-8.5340805E-2,2.712973E-1,-2.4243389E-1],"categories":[],"categories_nodes":[],"categories_segments":[],"categories_sizes":[],"default_left":[0,0,0,0,0,0,0,0,0,0,0,0,0,0,0,0,0,0,0,0,0,0,0,0,0,0,0,0,0,0,0,0,0],"id":14,"left_children":[1,3,5,7,9,-1,11,13,15,17,-1,-1,-1,19,-1,-1,21,23,25,-1,-1,27,29,-1,-1,-1,31,-1,-1,-1,-1,-1,-1],"loss_changes":[4.5311383E2,2.9400475E1,3.6253357E0,9.466242E0,1.4374237E0,0E0,2.6261559E0,1.6884727E0,1.25524645E1,2.0431948E0,0E0,0E0,0E0,4.245964E0,0E0,0E0,8.206329E0,1.7210349E0,6.6583633E-1,0E0,0E0,4.9801455E0,1.0417172E1,0E0,0E0,0E0,4.1635942E0,0E0,0E0,0E0,0E0,0E0,0E0],"parents":[2147483647,0,0,1,1,2,2,3,3,4,4,6,6,7,7,8,8,9,9,13,13,16,16,17,17,18,18,21,21,22,22,26,26],"right_children":[2,4,6,8,10,-1,12,14,16,18,-1,-1,-1,20,-1,-1,22,24,26,-1,-1,28,30,-1,-1,-1,32,-1,-1,-1,-1,-1,-1],"split_conditions":[-9.72766E-1,-1.3559823E-1,-1.4594398E-1,2.2470707E-1,-8.074423E-2,2.9945013E-1,-8.269021E-2,-7.6948116E-3,2.821801E-1,-5.917632E-3,-2.997759E-1,2.1676508E-1,-2.0624144E-1,-7.7249333E-3,-2.8637278E-1,3.0882338E-1,4.085756E-1,-1.678015E0,2.2856839E0,-2.5325516E-1,1.5473212E-1,7.588591E-1,4.308357E-1,2.1588343E-1,-1.5963252E-1,-2.6711887E-1,2.8134408E0,-2.5732893E-1,1.1213725E-1,2.2344355E-1,-8.5340805E-2,2.712973E-1,-2.4243389E-1],"split_indices":[29,23,20,0,7,0,5,10,0,10,0,0,0,10,0,0,21,29,15,0,0,1,21,0,0,0,14,0,0,0,0,0,0],"split_type":[0,0,0,0,0,0,0,0,0,0,0,0,0,0,0,0,0,0,0,0,0,0,0,0,0,0,0,0,0,0,0,0,0],"sum_hessian":[6.6742316E2,2.6364307E2,4.0378006E2,1.0337089E2,1.6027219E2,4.004668E2,3.313248E0,2.5752735E1,7.761816E1,1.858204E1,1.4169016E2,1.4672228E0,1.8460251E0,7.818902E0,1.7933834E1,7.8399243E0,6.977823E1,2.4597247E0,1.6122314E1,4.917147E0,2.9017544E0,2.4656467E1,4.5121765E1,1.3490123E0,1.1107123E0,1.1222009E1,4.900306E0,2.1391577E1,3.264891E0,1.2982183E1,3.213958E1,1.0817851E0,3.8185213E0],"tree_param":{"num_deleted":"0","num_feature":"79","num_nodes":"33","size_leaf_vector":"1"}},{"base_weights":[3.1502464E-1,-6.463324E-1,9.865628E-1,-2.3344615E-1,-9.4564056E-1,9.9530095E-1,-1.7386036E-1,-7.349261E-1,-7.244311E-2,-5.666429E-1,-2.985671E-1,8.9555286E-2,2.9906988E-1,-1.632546E-1,9.054524E-2,-2.8812185E-1,-2.8097606E-1,9.9869543E-1,-1.8994072E-1,-1.3607527E-1,-8.137507E-1,-2.4102874E-1,1.05337225E-1,1.3990384E-1,3.5478774E-1,-7.375003E-1,-2.6678046E-2,5.9969866E-1,-2.361718E-1,-2.7016383E-1,-4.643815E-3,-2.4031943E-1,-1.2670686E-5,1.6183871E-1,-7.3654994E-2,-1.2582834E-2,3.7169957E-1],"categories":[],"categories_nodes":[],"categories_segments":[],"categories_sizes":[],"default_left":[0,0,0,0,0,0,0,0,0,0,0,0,0,0,0,0,0,0,0,0,0,0,0,0,0,0,0,0,0,0,0,0,0,0,0,0,0],"id":15,"left_children":[1,3,5,7,9,11,13,15,17,19,-1,-1,-1,-1,-1,21,-1,23,25,27,29,-1,-1,-1,-1,31,33,35,-1,-1,-1,-1,-1,-1,-1,-1,-1],"loss_changes":[3.3021463E2,2.5799461E1,3.2247314E0,7.1984286E0,1.7237473E0,3.527832E-2,7.104222E-1,1.6870403E0,8.8859625E0,1.6348276E0,0E0,0E0,0E0,0E0,0E0,2.9827046E0,0E0,1.329217E-1,5.6218214E0,3.9136176E0,6.9437504E-1,0E0,0E0,0E0,0E0,6.776514E-1,6.2837353E0,1.6681921E0,0E0,0E0,0E0,0E0,0E0,0E0,0E0,0E0,0E0],"parents":[2147483647,0,0,1,1,2,2,3,3,4,4,5,5,6,6,7,7,8,8,9,9,15,15,17,17,18,18,19,19,20,20,25,25,26,26,27,27],"right_children":[2,4,6,8,10,12,14,16,18,20,-1,-1,-1,-1,-1,22,-1,24,26,28,30,-1,-1,-1,-1,32,34,36,-1,-1,-1,-1,-1,-1,-1,-1,-1],"split_conditions":[-9.72766E-1,-1.3559823E-1,-1.7357814E-1,2.2470707E-1,-8.074423E-2,-9.230356E-1,-4.858206E-1,-7.6948116E-3,2.821801E-1,-2.2476873E0,-2.985671E-1,8.9555286E-2,2.9906988E-1,-1.632546E-1,9.054524E-2,-7.7249333E-3,-2.8097606E-1,4.8193287E-2,-1.249024E-1,2.8134408E0,-1.4758204E-1,-2.4102874E-1,1.05337225E-1,1.3990384E-1,3.5478774E-1,3.428679E-2,1.1918864E-1,6.3117677E-1,-2.361718E-1,-2.7016383E-1,-4.643815E-3,-2.4031943E-1,-1.2670686E-5,1.6183871E-1,-7.3654994E-2,-1.2582834E-2,3.7169957E-1],"split_indices":[29,23,1,0,7,33,3,10,0,30,0,0,0,0,0,10,0,1,1,14,56,0,0,0,0,12,1,21,0,0,0,0,0,0,0,0,0],"split_type":[0,0,0,0,0,0,0,0,0,0,0,0,0,0,0,0,0,0,0,0,0,0,0,0,0,0,0,0,0,0,0,0,0,0,0,0,0],"sum_hessian":[5.0950677E2,2.0955322E2,2.9995355E2,8.881529E1,1.2073793E2,2.9785297E2,2.100578E0,2.071843E1,6.809686E1,1.5406151E1,1.0533178E2,1.1115499E0,2.9674142E2,1.100112E0,1.0004661E0,7.1983457E0,1.3520084E1,5.990075E0,6.2106785E1,6.183141E0,9.223009E0,3.8433306E0,3.3550148E0,2.446018E0,3.5440571E0,1.3456925E1,4.864986E1,2.940077E0,3.2430642E0,8.202985E0,1.0200244E0,1.2309656E1,1.1472696E0,1.3154292E1,3.5495567E1,1.9336936E0,1.0063835E0],"tree_param":{"num_deleted":"0","num_feature":"79","num_nodes":"37","size_leaf_vector":"1"}},{"base_weights":[2.9923967E-1,-5.7650185E-1,9.849942E-1,-1.823334E-1,-9.272893E-1,9.925842E-1,-8.25755E-2,-6.8045574E-1,-4.4478916E-2,-5.056402E-1,-2.9724833E-1,2.9886994E-1,6.387575E-2,-2.4578062E-1,-2.7483216E-1,1.1869224E-1,-6.7372084E-1,7.49331E-2,-6.275136E-1,-2.277374E-1,7.390087E-2,7.654985E-1,-5.954843E-2,-2.8069004E-1,6.5476336E-2,-2.2197203E-1,-2.6231197E-1,-1.9204365E-1,3.2295725E-1,-1.5195937E-1,7.119164E-2,2.1029732E-1,-1.9429351E-1,-1.9146584E-1,2.3442076E-1],"categories":[],"categories_nodes":[],"categories_segments":[],"categories_sizes":[],"default_left":[0,0,0,0,0,0,0,0,0,0,0,0,0,0,0,0,0,0,0,0,0,0,0,0,0,0,0,0,0,0,0,0,0,0,0],"id":16,"left_children":[1,3,5,7,9,11,-1,13,15,17,-1,-1,-1,19,-1,21,23,-1,25,-1,-1,27,29,-1,31,33,-1,-1,-1,-1,-1,-1,-1,-1,-1],"loss_changes":[2.3943207E2,2.4070549E1,2.410492E0,5.7237372E0,1.9775009E0,4.2034912E-1,0E0,1.6281643E0,6.9284086E0,1.4601388E0,0E0,0E0,0E0,2.1391108E0,0E0,6.2498994E0,2.7493887E0,0E0,1.0548406E0,0E0,0E0,5.803597E0,5.8414307E0,0E0,2.5238056E0,3.0299826E0,0E0,0E0,0E0,0E0,0E0,0E0,0E0,0E0,0E0],"parents":[2147483647,0,0,1,1,2,2,3,3,4,4,5,5,7,7,8,8,9,9,13,13,15,15,16,16,18,18,21,21,22,22,24,24,25,25],"right_children":[2,4,6,8,10,12,-1,14,16,18,-1,-1,-1,20,-1,22,24,-1,26,-1,-1,28,30,-1,32,34,-1,-1,-1,-1,-1,-1,-1,-1,-1],"split_conditions":[-7.155321E-1,-1.3559823E-1,-1.5689193E-1,2.2470707E-1,-8.074423E-2,-6.0956486E-2,-8.25755E-2,-7.6948116E-3,1.215646E0,7.467384E-2,-2.9724833E-1,2.9886994E-1,6.387575E-2,-7.7249333E-3,-2.7483216E-1,-1.4673012E-1,-5.723661E-3,7.49331E-2,-2.2476873E0,-2.277374E-1,7.390087E-2,-1.6058731E-1,1.2152896E0,-2.8069004E-1,1.4182525E0,-1.9492744E0,-2.6231197E-1,-1.9204365E-1,3.2295725E-1,-1.5195937E-1,7.119164E-2,2.1029732E-1,-1.9429351E-1,-1.9146584E-1,2.3442076E-1],"split_indices":[36,23,23,0,7,13,0,10,0,21,0,0,0,10,0,22,28,0,30,0,0,12,0,0,0,32,0,0,0,0,0,0,0,0,0],"split_type":[0,0,0,0,0,0,0,0,0,0,0,0,0,0,0,0,0,0,0,0,0,0,0,0,0,0,0,0,0,0,0,0,0,0,0],"sum_hessian":[3.967466E2,1.7430722E2,2.2243939E2,8.2794044E1,9.1513176E1,2.2131885E2,1.1205505E0,1.7093277E1,6.570077E1,1.3157354E1,7.835583E1,2.2001143E2,1.3074127E0,6.7273E0,1.0365977E1,5.281617E1,1.2884593E1,1.6820282E0,1.1475327E1,3.0270796E0,3.7002206E0,1.0698461E1,4.211771E1,9.317478E0,3.5671148E0,5.0607295E0,6.414597E0,1.7466234E0,8.951837E0,1.6526651E1,2.559106E1,1.895186E0,1.6719288E0,3.8340929E0,1.2266368E0],"tree_param":{"num_deleted":"0","num_feature":"79","num_nodes":"35","size_leaf_vector":"1"}},{"base_weights":[2.8254312E-1,-5.2412957E-1,9.833115E-1,-1.5561049E-1,-9.019707E-1,2.9739454E-1,-2.5980374E-2,-6.212E-1,-3.447105E-2,-4.4315243E-1,-2.9570287E-1,-2.1322498E-1,-2.671686E-1,9.710639E-1,-1.1573911E-1,-5.640583E-2,-7.304859E-1,-2.1427916E-1,5.2896585E-2,9.583579E-2,3.7208548E-1,-1.9709891E-1,2.2682287E-1,5.396302E-1,-2.1869817E-1,-2.538551E-1,-1.4581067E-3,-8.016929E-3,-2.2363497E-1,6.437383E-3,2.8133833E-1],"categories":[],"categories_nodes":[],"categories_segments":[],"categories_sizes":[],"default_left":[0,0,0,0,0,0,0,0,0,0,0,0,0,0,0,0,0,0,0,0,0,0,0,0,0,0,0,0,0,0,0],"id":17,"left_children":[1,3,5,7,9,-1,-1,11,13,15,-1,17,-1,19,21,23,25,-1,-1,-1,-1,27,-1,29,-1,-1,-1,-1,-1,-1,-1],"loss_changes":[1.7533342E2,1.9968334E1,1.5059357E0,4.170229E0,2.2937393E0,0E0,0E0,1.4898701E0,5.0181446E0,1.3796892E0,0E0,1.568985E0,0E0,4.099779E-1,4.152157E0,3.0127873E0,6.0474944E-1,0E0,0E0,0E0,0E0,4.876819E0,0E0,8.131486E-1,0E0,0E0,0E0,0E0,0E0,0E0,0E0],"parents":[2147483647,0,0,1,1,2,2,3,3,4,4,7,7,8,8,9,9,11,11,13,13,14,14,15,15,16,16,21,21,23,23],"right_children":[2,4,6,8,10,-1,-1,12,14,16,-1,18,-1,20,22,24,26,-1,-1,-1,-1,28,-1,30,-1,-1,-1,-1,-1,-1,-1],"split_conditions":[-7.0396924E-1,-1.3559823E-1,-6.514475E-2,2.2470707E-1,-8.074423E-2,2.9739454E-1,-2.5980374E-2,-7.6948116E-3,2.821801E-1,-2.2476873E0,-2.9570287E-1,-7.7249333E-3,-2.671686E-1,4.8193287E-2,6.6721306E0,2.8134408E0,1.729361E0,-2.1427916E-1,5.2896585E-2,9.583579E-2,3.7208548E-1,6.6456556E0,2.2682287E-1,6.2970126E-1,-2.1869817E-1,-2.538551E-1,-1.4581067E-3,-8.016929E-3,-2.2363497E-1,6.437383E-3,2.8133833E-1],"split_indices":[29,23,4,0,7,0,0,10,0,30,0,10,0,1,1,14,17,0,0,0,0,1,0,13,0,0,0,0,0,0,0],"split_type":[0,0,0,0,0,0,0,0,0,0,0,0,0,0,0,0,0,0,0,0,0,0,0,0,0,0,0,0,0,0,0],"sum_hessian":[3.082533E2,1.4341576E2,1.6483754E2,7.3318245E1,7.009751E1,1.6368652E2,1.151019E0,1.4285421E1,5.903282E1,1.1786411E1,5.8311104E1,6.393474E0,7.8919477E0,3.5955799E0,5.5437244E1,5.534016E0,6.2523956E0,2.4319286E0,3.9615455E0,1.6905133E0,1.9050666E0,5.141317E1,4.0240736E0,3.0387814E0,2.4952347E0,5.249278E0,1.0031174E0,4.002569E1,1.1387479E1,1.7783384E0,1.2604429E0],"tree_param":{"num_deleted":"0","num_feature":"79","num_nodes":"31","size_leaf_vector":"1"}},{"base_weights":[2.6296374E-1,-4.668829E-1,9.689114E-1,-1.7888337E-1,-9.573845E-1,2.9664034E-1,-8.2067445E-2,-7.7898026E-2,-2.618266E-1,-2.936745E-1,-4.960304E-2,-1.7634073E-1,1.525767E-1,4.6788435E-3,-2.5692922E-1,8.9784265E-1,-1.2097339E-1,3.2758975E-1,1.1352984E-1,-2.7175564E-1,3.3411827E-2],"categories":[],"categories_nodes":[],"categories_segments":[],"categories_sizes":[],"default_left":[0,0,0,0,0,0,0,0,0,0,0,0,0,0,0,0,0,0,0,0,0],"id":18,"left_children":[1,3,5,7,9,-1,11,13,-1,-1,-1,-1,-1,15,-1,17,19,-1,-1,-1,-1],"loss_changes":[1.2703578E2,1.6988241E1,2.698494E0,5.3809814E0,6.0053253E-1,0E0,1.2694615E0,4.438769E0,0E0,0E0,0E0,0E0,0E0,7.2195373E0,0E0,3.8666487E-1,1.0391328E1,0E0,0E0,0E0,0E0],"parents":[2147483647,0,0,1,1,2,2,3,3,4,4,6,6,7,7,13,13,15,15,16,16],"right_children":[2,4,6,8,10,-1,12,14,-1,-1,-1,-1,-1,16,-1,18,20,-1,-1,-1,-1],"split_conditions":[-9.72766E-1,1.6435409E0,-1.4594398E-1,2.7642999E0,-3.185504E-1,2.9664034E-1,-1.9337708E-2,-1.7886791E-2,-2.618266E-1,-2.936745E-1,-4.960304E-2,-1.7634073E-1,1.525767E-1,-3.6626745E-2,-2.5692922E-1,1.2153405E0,4.0690845E-1,3.2758975E-1,1.1352984E-1,-2.7175564E-1,3.3411827E-2],"split_indices":[29,54,20,22,37,0,3,51,0,0,0,0,0,21,0,0,13,0,0,0,0],"split_type":[0,0,0,0,0,0,0,0,0,0,0,0,0,0,0,0,0,0,0,0,0],"sum_hessian":[2.4468161E2,1.2047093E2,1.2421068E2,7.6763626E1,4.3707306E1,1.2196173E2,2.2489493E0,6.798189E1,8.781742E0,4.232094E1,1.3863697E0,1.2141744E0,1.0347748E0,6.2361374E1,5.6205134E0,6.9332E0,5.5428173E1,4.2445364E0,2.6886635E0,1.1998346E1,4.3429825E1],"tree_param":{"num_deleted":"0","num_feature":"79","num_nodes":"21","size_leaf_vector":"1"}},{"base_weights":[2.4043645E-1,-4.0228963E-1,9.691705E-1,-1.4432175E-1,-9.426679E-1,2.9570618E-1,1.1408511E-2,-5.964115E-2,-2.4793923E-1,-3.6124323E-2,-2.9125243E-1,8.220059E-3,-2.513679E-1,-4.5255354E-1,1.6469082E-1,-1.8361789E-1,2.781517E-1,1.0321399E-1,-8.820456E-2],"categories":[],"categories_nodes":[],"categories_segments":[],"categories_sizes":[],"default_left":[0,0,0,0,0,0,0,0,0,0,0,0,0,0,0,0,0,0,0],"id":19,"left_children":[1,3,5,7,9,-1,-1,11,-1,-1,-1,13,-1,15,17,-1,-1,-1,-1],"loss_changes":[9.277283E1,1.4572327E1,1.3886414E0,4.144322E0,6.6871834E-1,0E0,0E0,3.474568E0,0E0,0E0,0E0,4.500143E0,0E0,4.050715E0,3.9314013E0,0E0,0E0,0E0,0E0],"parents":[2147483647,0,0,1,1,2,2,3,3,4,4,7,7,11,11,13,13,14,14],"right_children":[2,4,6,8,10,-1,-1,12,-1,-1,-1,14,-1,16,18,-1,-1,-1,-1],"split_conditions":[-7.0396924E-1,1.6435409E0,-1.3279718E-1,2.7642999E0,-6.505743E-2,2.9570618E-1,1.1408511E-2,1.4182525E0,-2.4793923E-1,-3.6124323E-2,-2.9125243E-1,2.2470707E-1,-2.513679E-1,1.8853173E0,6.6456556E0,-1.8361789E-1,2.781517E-1,1.0321399E-1,-8.820456E-2],"split_indices":[29,54,14,22,4,0,0,0,0,0,0,0,0,23,1,0,0,0,0],"split_type":[0,0,0,0,0,0,0,0,0,0,0,0,0,0,0,0,0,0,0],"sum_hessian":[1.9624081E2,1.0451183E2,9.172899E1,7.15988E1,3.2913036E1,9.0072685E1,1.6563002E0,6.4659454E1,6.939342E0,1.2650859E0,3.164795E1,6.0383625E1,4.2758317E0,1.4827497E1,4.5556126E1,1.37897005E1,1.0377965E0,3.293024E1,1.2625888E1],"tree_param":{"num_deleted":"0","num_feature":"79","num_nodes":"19","size_leaf_vector":"1"}},{"base_weights":[2.1343966E-1,-3.4647095E-1,9.571762E-1,-1.2194737E-1,-9.240633E-1,2.9377505E-1,9.2747E-3,-3.3720636E-1,9.0499885E-2,-2.882092E-1,-2.2117378E-2,-4.3336627E-1,4.6421683E-1,3.513806E-1,-5.529222E-1,-8.2500213E-1,-2.0287082E-1,3.5260424E-1,-1.7324379E-1,8.85647E-1,-2.2373766E-1,-2.637011E-1,7.365956E-2,-2.7430904E-1,8.81385E-3,-7.3659443E-3,-2.3833507E-1,4.3634724E-2,2.836335E-1,-1.949403E-1,2.4649976E-1,1.4319526E-1,-1.6711107E-1],"categories":[],"categories_nodes":[],"categories_segments":[],"categories_sizes":[],"default_left":[0,0,0,0,0,0,0,0,0,0,0,0,0,0,0,0,0,0,0,0,0,0,0,0,0,0,0,0,0,0,0,0,0],"id":20,"left_children":[1,3,5,7,9,-1,-1,11,13,-1,-1,15,17,19,21,23,25,-1,-1,27,29,-1,31,-1,-1,-1,-1,-1,-1,-1,-1,-1,-1],"loss_changes":[6.770547E1,1.1952578E1,1.3959389E0,3.1469293E0,7.3568916E-1,0E0,0E0,2.8260598E0,6.0836225E0,0E0,0E0,2.6245966E0,3.7395115E0,8.0565605E0,2.2121844E0,8.768425E-1,2.1742516E0,0E0,0E0,4.5826435E-1,6.3754673E0,0E0,1.4166622E0,0E0,0E0,0E0,0E0,0E0,0E0,0E0,0E0,0E0,0E0],"parents":[2147483647,0,0,1,1,2,2,3,3,4,4,7,7,8,8,11,11,12,12,13,13,14,14,15,15,16,16,19,19,20,20,22,22],"right_children":[2,4,6,8,10,-1,-1,12,14,-1,-1,16,18,20,22,24,26,-1,-1,28,30,-1,32,-1,-1,-1,-1,-1,-1,-1,-1,-1,-1],"split_conditions":[-7.0396924E-1,1.6435409E0,-1.3279718E-1,1.2152896E0,-3.185504E-1,2.9377505E-1,9.2747E-3,-1.8059482E-1,1.215646E0,-2.882092E-1,-2.2117378E-2,5.183049E-1,-1.4594398E-1,6.6456556E0,-2.0217905E0,-4.593493E-1,2.545314E0,3.5260424E-1,-1.7324379E-1,-1.7357814E-1,6.6721306E0,-2.637011E-1,-2.045174E0,-2.7430904E-1,8.81385E-3,-7.3659443E-3,-2.3833507E-1,4.3634724E-2,2.836335E-1,-1.949403E-1,2.4649976E-1,1.4319526E-1,-1.6711107E-1],"split_indices":[29,54,14,0,37,0,0,48,0,0,0,13,20,1,29,37,22,0,0,1,1,0,30,0,0,0,0,0,0,0,0,0,0],"split_type":[0,0,0,0,0,0,0,0,0,0,0,0,0,0,0,0,0,0,0,0,0,0,0,0,0,0,0,0,0,0,0,0,0],"sum_hessian":[1.6079065E2,9.203653E1,6.875413E1,6.7146324E1,2.4890203E1,6.709789E1,1.656233E0,3.3060757E1,3.4085564E1,2.373776E1,1.1524439E0,2.9928946E1,3.131813E0,2.4575226E1,9.510338E0,1.0132875E1,1.979607E1,1.7849716E0,1.3468413E0,1.2460179E1,1.21150465E1,5.990135E0,3.5202026E0,9.109855E0,1.0230211E0,1.6011335E1,3.7847347E0,1.1879313E0,1.1272248E1,8.875983E0,3.2390635E0,2.2947242E0,1.2254783E0],"tree_param":{"num_deleted":"0","num_feature":"79","num_nodes":"33","size_leaf_vector":"1"}},{"base_weights":[1.9656925E-1,-3.1318513E-1,9.4077986E-1,-1.0764915E-1,-9.0074044E-1,9.666979E-1,-3.2304168E-2,-4.6647113E-2,-2.3806973E-1,-1.2885499E-2,-2.8433025E-1,2.9410818E-1,6.0581487E-2,-1.078393E-1,7.1394575E-1,-4.912976E-1,4.8233435E-2,2.713661E-1,1.5934147E-2,2.2957133E-2,-2.584317E-1,1.6963041E-1,-2.5698515E-2],"categories":[],"categories_nodes":[],"categories_segments":[],"categories_sizes":[],"default_left":[0,0,0,0,0,0,0,0,0,0,0,0,0,0,0,0,0,0,0,0,0,0,0],"id":21,"left_children":[1,3,5,7,9,11,-1,13,-1,-1,-1,-1,-1,15,17,19,21,-1,-1,-1,-1,-1,-1],"loss_changes":[4.9311825E1,9.254227E0,1.5381966E0,2.4108377E0,7.6332664E-1,3.4120178E-1,0E0,2.6268797E0,0E0,0E0,0E0,0E0,0E0,3.1103652E0,4.8234224E-1,3.220412E0,2.6499593E0,0E0,0E0,0E0,0E0,0E0,0E0],"parents":[2147483647,0,0,1,1,2,2,3,3,4,4,5,5,7,7,13,13,14,14,15,15,16,16],"right_children":[2,4,6,8,10,12,-1,14,-1,-1,-1,-1,-1,16,18,20,22,-1,-1,-1,-1,-1,-1],"split_conditions":[-7.0396924E-1,1.6435409E0,-1.7357814E-1,3.040558E0,-6.505743E-2,-6.514546E-2,-3.2304168E-2,5.8370296E-2,-2.3806973E-1,-1.2885499E-2,-2.8433025E-1,2.9410818E-1,6.0581487E-2,4.0690845E-1,-6.352939E-2,-1.5768267E-1,-7.845419E-3,2.713661E-1,1.5934147E-2,2.2957133E-2,-2.584317E-1,1.6963041E-1,-2.5698515E-2],"split_indices":[29,54,1,22,4,4,0,4,0,0,0,0,0,13,15,22,10,0,0,0,0,0,0],"split_type":[0,0,0,0,0,0,0,0,0,0,0,0,0,0,0,0,0,0,0,0,0,0,0],"sum_hessian":[1.2820863E2,7.6433754E1,5.177488E1,5.750191E1,1.8931845E1,5.0601982E1,1.1728992E0,5.378642E1,3.7154918E0,1.0834103E0,1.7848434E1,4.943685E1,1.1651284E0,5.057566E1,3.210761E0,1.4008938E1,3.6566723E1,2.2057364E0,1.0050246E0,5.841282E0,8.167656E0,6.856998E0,2.9709723E1],"tree_param":{"num_deleted":"0","num_feature":"79","num_nodes":"23","size_leaf_vector":"1"}},{"base_weights":[1.7394567E-1,-2.629911E-1,9.219472E-1,-8.5420154E-2,-8.7197196E-1,9.546044E-1,-2.7133724E-2,-3.206389E-2,-2.2904006E-1,-2.7950996E-1,-1.0628013E-3,2.9211757E-1,5.1422257E-2,-2.3697531E-1,2.0730604E-1,-9.886476E-2,-2.4694343E-1,5.232442E-1,-2.4351375E-1,-8.6925164E-2,1.7081563E-1,2.4993277E-1,-4.032949E-2,-1.7412066E-1,2.0356789E-1],"categories":[],"categories_nodes":[],"categories_segments":[],"categories_sizes":[],"default_left":[0,0,0,0,0,0,0,0,0,0,0,0,0,0,0,0,0,0,0,0,0,0,0,0,0],"id":22,"left_children":[1,3,5,7,9,11,-1,13,-1,-1,-1,-1,-1,15,17,19,-1,21,23,-1,-1,-1,-1,-1,-1],"loss_changes":[3.5651E1,7.4051795E0,1.4144783E0,1.9530655E0,8.0102444E-1,4.1717148E-1,0E0,2.5858626E0,0E0,0E0,0E0,0E0,0E0,2.2121975E0,3.6008356E0,3.2347279E0,0E0,3.098724E0,3.7272043E0,0E0,0E0,0E0,0E0,0E0,0E0],"parents":[2147483647,0,0,1,1,2,2,3,3,4,4,5,5,7,7,13,13,14,14,15,15,17,17,18,18],"right_children":[2,4,6,8,10,12,-1,14,-1,-1,-1,-1,-1,16,18,20,-1,22,24,-1,-1,-1,-1,-1,-1],"split_conditions":[-7.0396924E-1,1.6435409E0,-1.7357814E-1,1.4182525E0,-1.4499956E0,-6.514546E-2,-2.7133724E-2,1.2152896E0,-2.2904006E-1,-2.7950996E-1,-1.0628013E-3,2.9211757E-1,5.1422257E-2,9.7857606E-1,6.6456556E0,8.4708554E-1,-2.4694343E-1,1.215646E0,6.6721306E0,-8.6925164E-2,1.7081563E-1,2.4993277E-1,-4.032949E-2,-1.7412066E-1,2.0356789E-1],"split_indices":[29,54,1,0,36,4,0,0,0,0,0,0,0,0,1,0,0,0,1,0,0,0,0,0,0],"split_type":[0,0,0,0,0,0,0,0,0,0,0,0,0,0,0,0,0,0,0,0,0,0,0,0,0],"sum_hessian":[1.07339516E2,6.816822E1,3.9171295E1,5.366149E1,1.4506728E1,3.8002514E1,1.1687833E0,5.0717743E1,2.943748E0,1.3505037E1,1.0016909E0,3.6859367E1,1.1431442E0,2.7331099E1,2.3386644E1,2.3065235E1,4.2658625E0,1.3655858E1,9.730786E0,1.838108E1,4.684155E0,9.101109E0,4.554749E0,7.3982944E0,2.332492E0],"tree_param":{"num_deleted":"0","num_feature":"79","num_nodes":"25","size_leaf_vector":"1"}},{"base_weights":[1.5402126E-1,-2.2755343E-1,8.979919E-1,-7.2844464E-1,-2.1363696E-2,2.8439078E-1,4.396195E-3,-9.0996645E-2,-8.20648E-1,4.708522E-1,-2.4808136E-1,-1.7211711E-1,1.5255544E-1,-8.88465E-1,1.7988458E-2,1.6253239E-1,1.0218952E0,-6.4055306E-1,-5.32115E-2,-2.8325516E-1,-4.7738124E-2,3.5217836E-1,-1.7830971E-1,5.8009297E-1,2.8753194E-1,-1.6558407E-1,-2.506299E-1,1.5664794E-1,-2.2930686E-1,2.1033236E-1,3.8949005E-2,-1.5944596E-1,2.7688265E-1,9.463957E-2,-1.7821433E-1,1.4507657E-1,-5.7411704E-2],"categories":[],"categories_nodes":[],"categories_segments":[],"categories_sizes":[],"default_left":[0,0,0,0,0,0,0,0,0,0,0,0,0,0,0,0,0,0,0,0,0,0,0,0,0,0,0,0,0,0,0,0,0,0,0,0,0],"id":23,"left_children":[1,3,5,7,9,-1,-1,11,13,15,17,-1,-1,19,-1,21,23,25,27,-1,-1,29,-1,-1,31,33,-1,35,-1,-1,-1,-1,-1,-1,-1,-1,-1],"loss_changes":[2.5851328E1,6.234267E0,1.3471603E0,9.607115E-1,5.0155745E0,0E0,0E0,1.2614775E0,9.649248E-1,2.2444909E0,2.314616E0,0E0,0E0,4.2831802E-1,0E0,1.6859586E0,2.7257433E0,7.963867E-1,3.3450148E0,0E0,0E0,5.958983E-1,0E0,0E0,2.5146449E0,1.0500046E0,0E0,2.0856507E0,0E0,0E0,0E0,0E0,0E0,0E0,0E0,0E0,0E0],"parents":[2147483647,0,0,1,1,2,2,3,3,4,4,7,7,8,8,9,9,10,10,13,13,15,15,16,16,17,17,18,18,21,21,24,24,25,25,27,27],"right_children":[2,4,6,8,10,-1,-1,12,14,16,18,-1,-1,20,-1,22,24,26,28,-1,-1,30,-1,-1,32,34,-1,36,-1,-1,-1,-1,-1,-1,-1,-1,-1],"split_conditions":[-7.0396924E-1,-1.249024E-1,-1.3279718E-1,-1.4594398E-1,2.4990082E-1,2.8439078E-1,4.396195E-3,-1.6058731E-1,5.8370296E-2,-8.261207E-2,4.0690845E-1,-1.7211711E-1,1.5255544E-1,6.5343684E-1,1.7988458E-2,-5.2248333E-3,1.0001603E0,-6.516428E-2,6.7425984E-1,-2.8325516E-1,-4.7738124E-2,3.5964992E-2,-1.7830971E-1,5.8009297E-1,1.325196E0,-5.888686E-2,-2.506299E-1,6.6456556E0,-2.2930686E-1,2.1033236E-1,3.8949005E-2,-1.5944596E-1,2.7688265E-1,9.463957E-2,-1.7821433E-1,1.4507657E-1,-5.7411704E-2],"split_indices":[29,1,14,20,1,0,0,12,4,5,13,0,0,21,0,10,0,4,13,0,0,1,0,0,0,21,0,1,0,0,0,0,0,0,0,0,0],"split_type":[0,0,0,0,0,0,0,0,0,0,0,0,0,0,0,0,0,0,0,0,0,0,0,0,0,0,0,0,0,0,0,0,0,0,0,0,0],"sum_hessian":[8.9344345E1,5.9514248E1,2.9830093E1,1.6616163E1,4.2898087E1,2.8163498E1,1.6665951E0,2.350802E0,1.4265361E1,1.318845E1,2.9709637E1,1.3260729E0,1.024729E0,1.3237038E1,1.0283234E0,9.287088E0,3.901362E0,9.098333E0,2.0611303E1,1.2023879E1,1.2131585E0,7.8539386E0,1.4331495E0,1.0119221E0,2.8894396E0,3.1851165E0,5.913217E0,1.651688E1,4.094422E0,2.2187989E0,5.6351395E0,1.3337904E0,1.5556493E0,1.6247213E0,1.5603952E0,8.315505E0,8.201375E0],"tree_param":{"num_deleted":"0","num_feature":"79","num_nodes":"37","size_leaf_vector":"1"}},{"base_weights":[1.2766965E-1,-1.9518484E-1,8.5533226E-1,-2.66808E-1,-6.404097E-2,9.1746324E-1,-4.2457104E-2,-7.600126E-1,3.8604233E-2,2.8639185E-1,2.3546714E-2,-2.4764547E-1,-6.5622516E-2,1.165645E-1,-2.2521833E-1,4.0656632E-1,-8.4575616E-2,3.1292465E-1,6.3765764E-2,-5.040555E-2,2.6916826E-1],"categories":[],"categories_nodes":[],"categories_segments":[],"categories_sizes":[],"default_left":[0,0,0,0,0,0,0,0,0,0,0,0,0,0,0,0,0,0,0,0,0],"id":24,"left_children":[1,3,5,-1,7,9,-1,11,13,-1,-1,-1,-1,15,-1,17,19,-1,-1,-1,-1],"loss_changes":[1.8656425E1,4.9800234E0,1.6394215E0,0E0,3.430853E0,6.4484024E-1,0E0,3.8022757E-2,2.6995242E0,0E0,0E0,0E0,0E0,2.3382673E0,0E0,1.7970903E0,2.129161E0,0E0,0E0,0E0,0E0],"parents":[2147483647,0,0,1,1,2,2,4,4,5,5,7,7,8,8,13,13,15,15,16,16],"right_children":[2,4,6,-1,8,10,-1,12,14,-1,-1,-1,-1,16,-1,18,20,-1,-1,-1,-1],"split_conditions":[-7.155321E-1,-1.2566721E-1,-1.7357814E-1,-2.66808E-1,-1.801078E-1,-6.514475E-2,-4.2457104E-2,-6.1887274E-3,2.7642999E0,2.8639185E-1,2.3546714E-2,-2.4764547E-1,-6.5622516E-2,4.459097E-1,-2.2521833E-1,2.0639491E-1,2.2856839E0,3.1292465E-1,6.3765764E-2,-5.040555E-2,2.6916826E-1],"split_indices":[36,21,1,0,1,4,0,10,22,0,0,0,0,1,0,13,15,0,0,0,0],"split_type":[0,0,0,0,0,0,0,0,0,0,0,0,0,0,0,0,0,0,0,0,0],"sum_hessian":[7.770236E1,5.4329033E1,2.3373325E1,7.7142334E0,4.66148E1,2.2076977E1,1.296348E0,5.168208E0,4.1446594E1,2.1008205E1,1.0687711E0,4.142093E0,1.026115E0,3.84967E1,2.949894E0,1.53475065E1,2.3149193E1,2.5628948E0,1.2784612E1,2.209981E1,1.0493826E0],"tree_param":{"num_deleted":"0","num_feature":"79","num_nodes":"21","size_leaf_vector":"1"}},{"base_weights":[1.0588955E-1,-1.5357824E-1,8.3114105E-1,-2.5809228E-1,-4.4346526E-2,8.998179E-1,-2.6107257E-2,7.216375E-1,-1.2229621E-1,2.817526E-1,4.4052593E-2,2.5186914E-1,5.526351E-2,-7.3150253E-1,-9.49442E-3,-2.4450947E-1,-4.0750366E-2,-3.4854206E-1,1.695104E-1,6.1016213E-2,-1.7938903E-1,1.9825344E-1,5.1335404E-3],"categories":[],"categories_nodes":[],"categories_segments":[],"categories_sizes":[],"default_left":[0,0,0,0,0,0,0,0,0,0,0,0,0,0,0,0,0,0,0,0,0,0,0],"id":25,"left_children":[1,3,5,-1,7,9,-1,11,13,-1,-1,-1,-1,15,17,-1,-1,19,21,-1,-1,-1,-1],"loss_changes":[1.3365219E1,4.026585E0,1.2569361E0,0E0,2.874211E0,3.8008118E-1,0E0,1.2766051E-1,2.9620788E0,0E0,0E0,0E0,0E0,2.2448921E-1,2.33306E0,0E0,0E0,1.9489142E0,1.8752105E0,0E0,0E0,0E0,0E0],"parents":[2147483647,0,0,1,1,2,2,4,4,5,5,7,7,8,8,13,13,14,14,17,17,18,18],"right_children":[2,4,6,-1,8,10,-1,12,14,-1,-1,-1,-1,16,18,-1,-1,20,22,-1,-1,-1,-1],"split_conditions":[-7.0396924E-1,-1.2566721E-1,-1.7357814E-1,-2.5809228E-1,-1.4673012E-1,-6.5146126E-2,-2.6107257E-2,1.8083556E0,-1.7310326E-1,2.817526E-1,4.4052593E-2,2.5186914E-1,5.526351E-2,-5.4733906E-2,8.4708554E-1,-2.4450947E-1,-4.0750366E-2,-7.6948116E-3,9.7857606E-1,6.1016213E-2,-1.7938903E-1,1.9825344E-1,5.1335404E-3],"split_indices":[29,21,1,0,22,4,0,1,1,0,0,0,0,5,0,0,0,10,0,0,0,0,0],"split_type":[0,0,0,0,0,0,0,0,0,0,0,0,0,0,0,0,0,0,0,0,0,0,0],"sum_hessian":[6.93455E1,5.1653908E1,1.769159E1,5.9943657E0,4.5659542E1,1.647898E1,1.2126101E0,3.4546068E0,4.2204937E1,1.5425423E1,1.0535568E0,2.3719416E0,1.0826652E0,5.7369046E0,3.6468033E1,4.7083936E0,1.0285108E0,1.2273692E1,2.419434E1,3.8776462E0,8.396046E0,4.937975E0,1.9256365E1],"tree_param":{"num_deleted":"0","num_feature":"79","num_nodes":"23","size_leaf_vector":"1"}},{"base_weights":[8.514861E-2,-1.2890218E-1,7.802792E-1,-6.2046766E-1,1.2254384E-3,8.675185E-1,-2.9371968E-2,-7.041271E-1,2.398331E-2,-2.0462625E-1,5.6792017E-2,2.766913E-1,3.0711502E-2,-2.3559849E-1,-1.0575067E-2,1.1263732E-1,-1.977963E-1,1.6374497E-1,-1.8771581E-1,2.074176E-2,2.0267694E-1],"categories":[],"categories_nodes":[],"categories_segments":[],"categories_sizes":[],"default_left":[0,0,0,0,0,0,0,0,0,0,0,0,0,0,0,0,0,0,0,0,0],"id":26,"left_children":[1,3,5,7,9,11,-1,13,-1,-1,15,-1,-1,-1,-1,17,-1,19,-1,-1,-1],"loss_changes":[9.610892E0,3.1815805E0,1.2486572E0,6.662946E-1,1.5695183E0,4.8903656E-1,0E0,4.8294687E-1,0E0,0E0,1.6022382E0,0E0,0E0,0E0,0E0,1.4721689E0,0E0,1.6355355E0,0E0,0E0,0E0],"parents":[2147483647,0,0,1,1,2,2,3,3,4,4,5,5,7,7,10,10,15,15,17,17],"right_children":[2,4,6,8,10,12,-1,14,-1,-1,16,-1,-1,-1,-1,18,-1,20,-1,-1,-1],"split_conditions":[-7.155321E-1,-1.249024E-1,-1.7357814E-1,2.6850728E-3,-1.4487305E0,-6.514512E-2,-2.9371968E-2,6.5343684E-1,2.398331E-2,-2.0462625E-1,2.7642999E0,2.766913E-1,3.0711502E-2,-2.3559849E-1,-1.0575067E-2,1.4182525E0,-1.977963E-1,1.9096102E0,-1.8771581E-1,2.074176E-2,2.0267694E-1],"split_indices":[36,1,1,6,0,4,0,21,0,0,22,0,0,0,0,0,0,22,0,0,0],"split_type":[0,0,0,0,0,0,0,0,0,0,0,0,0,0,0,0,0,0,0,0,0],"sum_hessian":[6.2916286E1,4.872654E1,1.4189746E1,9.410317E0,3.9316223E1,1.2918559E1,1.2711877E0,8.40151E0,1.0088068E0,2.1087973E0,3.7207428E1,1.1863704E1,1.0548546E0,7.3367352E0,1.0647748E0,3.52975E1,1.9099276E0,3.374029E1,1.5572084E0,2.9434841E1,4.30545E0],"tree_param":{"num_deleted":"0","num_feature":"79","num_nodes":"21","size_leaf_vector":"1"}},{"base_weights":[5.9743013E-2,-1.1977173E-1,7.031952E-1,-2.6028477E-2,-2.4379443E-1,8.530022E-1,-3.912317E-2,7.016602E-1,-9.574078E-2,6.440801E-2,2.682807E-1,7.336633E-2,2.5041786E-1,-7.440891E-1,8.6016515E-3,-5.005455E-2,-2.5393686E-1,4.615415E-1,-9.067729E-2,2.0363764E-1,5.110311E-2,-4.3913446E-2,1.8685856E-1],"categories":[],"categories_nodes":[],"categories_segments":[],"categories_sizes":[],"default_left":[0,0,0,0,0,0,0,0,0,0,0,0,0,0,0,0,0,0,0,0,0,0,0],"id":27,"left_children":[1,3,5,7,-1,9,-1,11,13,-1,-1,-1,-1,15,17,-1,-1,19,21,-1,-1,-1,-1],"loss_changes":[7.008226E0,3.0785286E0,1.7622828E0,2.251978E0,0E0,1.0670471E-1,0E0,3.2186747E-2,2.7247849E0,0E0,0E0,0E0,0E0,1.8860245E-1,1.64274E0,0E0,0E0,2.9967022E-1,1.2849646E0,0E0,0E0,0E0,0E0],"parents":[2147483647,0,0,1,1,2,2,3,3,5,5,7,7,8,8,13,13,14,14,17,17,18,18],"right_children":[2,4,6,8,-1,10,-1,12,14,-1,-1,-1,-1,16,18,-1,-1,20,22,-1,-1,-1,-1],"split_conditions":[-3.8730282E-1,-1.7886791E-2,-7.200817E-2,-3.6626745E-2,-2.4379443E-1,-1.4454216E0,-3.912317E-2,2.0217484E-1,4.085756E-1,6.440801E-2,2.682807E-1,7.336633E-2,2.5041786E-1,-8.116515E-3,1.5446486E-1,-5.005455E-2,-2.5393686E-1,6.6456556E0,2.2856839E0,2.0363764E-1,5.110311E-2,-4.3913446E-2,1.8685856E-1],"split_indices":[37,51,12,21,0,0,0,1,21,0,0,0,0,10,22,0,0,1,15,0,0,0,0],"split_type":[0,0,0,0,0,0,0,0,0,0,0,0,0,0,0,0,0,0,0,0,0,0,0],"sum_hessian":[5.8943325E1,4.6722282E1,1.2221044E1,4.20682E1,4.654084E0,1.03396435E1,1.8814008E0,2.8852775E0,3.9182922E1,1.0045167E0,9.335127E0,1.2903914E0,1.5948861E0,4.5818214E0,3.46011E1,1.0862786E0,3.4955428E0,5.5646386E0,2.903646E1,2.4246633E0,3.1399755E0,2.7671225E1,1.3652366E0],"tree_param":{"num_deleted":"0","num_feature":"79","num_nodes":"23","size_leaf_vector":"1"}},{"base_weights":[5.5816542E-2,-6.2121537E-2,2.5963998E-1,-2.3897147E-1,1.2348699E-2,7.564485E-1,-9.043758E-2,6.764634E-2,2.5618124E-1,-6.0098124E-1,-1.31620215E-2,-2.1528453E-1,-4.9356643E-2,-2.9242748E-1,1.2201113E-1,5.6162577E-2,-1.6356221E-1,5.378363E-2,-1.6705771E-1],"categories":[],"categories_nodes":[],"categories_segments":[],"categories_sizes":[],"default_left":[0,0,0,0,0,0,0,0,0,0,0,0,0,0,0,0,0,0,0],"id":28,"left_children":[1,3,-1,-1,5,7,9,-1,-1,11,13,-1,-1,15,17,-1,-1,-1,-1],"loss_changes":[5.285939E0,2.6767502E0,0E0,0E0,3.5297258E0,9.7292185E-2,1.5960875E0,0E0,0E0,1.5287542E-1,1.4072592E0,0E0,0E0,1.5745664E0,1.0791101E0,0E0,0E0,0E0,0E0],"parents":[2147483647,0,0,1,1,4,4,5,5,6,6,9,9,10,10,13,13,14,14],"right_children":[2,4,-1,-1,6,8,10,-1,-1,12,14,-1,-1,16,18,-1,-1,-1,-1],"split_conditions":[-2.6281813E-2,-1.2566721E-1,2.5963998E-1,-2.3897147E-1,-1.4673012E-1,-1.1694775E-1,-1.7310326E-1,6.764634E-2,2.5618124E-1,-6.038119E-3,8.4708554E-1,-2.1528453E-1,-4.9356643E-2,-7.6948116E-3,1.4182525E0,5.6162577E-2,-1.6356221E-1,5.378363E-2,-1.6705771E-1],"split_indices":[29,21,0,0,22,56,1,0,0,10,0,0,0,10,0,0,0,0,0],"split_type":[0,0,0,0,0,0,0,0,0,0,0,0,0,0,0,0,0,0,0],"sum_hessian":[5.379374E1,4.7760025E1,6.0337143E0,3.504176E0,4.4255848E1,4.5994754E0,3.9656372E1,1.2274249E0,3.3720508E0,4.322354E0,3.533402E1,2.9025407E0,1.4198134E0,1.1145091E1,2.4188927E1,3.93605E0,7.2090416E0,2.298582E1,1.2031053E0],"tree_param":{"num_deleted":"0","num_feature":"79","num_nodes":"19","size_leaf_vector":"1"}},{"base_weights":[3.9478626E-2,-5.7812203E-2,2.4802841E-1,-2.2513904E-1,3.4770311E-3,6.8580234E-1,-8.116584E-2,5.7412703E-2,2.3789297E-1,-2.4331514E-2,-2.1345963E-1,-1.2231261E-1,3.1096846E-1,-5.713196E-2,1.5879077E-1,2.7385202E-1,3.4493946E-2],"categories":[],"categories_nodes":[],"categories_segments":[],"categories_sizes":[],"default_left":[0,0,0,0,0,0,0,0,0,0,0,0,0,0,0,0,0],"id":29,"left_children":[1,3,-1,-1,5,7,9,-1,-1,11,-1,13,15,-1,-1,-1,-1],"loss_changes":[3.9684854E0,1.9762816E0,0E0,0E0,2.5799613E0,1.094532E-1,1.4078037E0,0E0,0E0,1.2708107E0,0E0,1.4217535E0,9.292981E-1,0E0,0E0,0E0,0E0],"parents":[2147483647,0,0,1,1,4,4,5,5,6,6,9,9,11,11,12,12],"right_children":[2,4,-1,-1,6,8,10,-1,-1,12,-1,14,16,-1,-1,-1,-1],"split_conditions":[-2.6281813E-2,-1.2566721E-1,2.4802841E-1,-2.2513904E-1,-1.4673012E-1,-1.1694775E-1,-1.1118804E0,5.7412703E-2,2.3789297E-1,-1.5527077E0,-2.1345963E-1,6.6721306E0,-1.9389645E0,-5.713196E-2,1.5879077E-1,2.7385202E-1,3.4493946E-2],"split_indices":[29,21,0,0,22,56,3,0,0,3,0,1,32,0,0,0,0],"split_type":[0,0,0,0,0,0,0,0,0,0,0,0,0,0,0,0,0],"sum_hessian":[5.0187004E1,4.5491787E1,4.6952167E0,2.7840164E0,4.270777E1,3.9294317E0,3.877834E1,1.196281E0,2.7331507E0,3.652391E1,2.2544267E0,2.8756054E1,7.767858E0,2.6674898E1,2.0811555E0,1.0096511E0,6.758207E0],"tree_param":{"num_deleted":"0","num_feature":"79","num_nodes":"17","size_leaf_vector":"1"}},{"base_weights":[4.0971138E-2,-3.859504E-2,2.3509404E-1,-2.1085674E-1,1.3385114E-2,6.140297E-1,-5.5592418E-2,4.8613235E-2,2.1824121E-1,-4.6521762E-1,1.6997924E-2,-6.515871E-1,6.398251E-2,6.65105E-2,-1.8576643E-1,-6.2526844E-2,-2.2416502E-1,6.241346E-3,1.6915157E-1],"categories":[],"categories_nodes":[],"categories_segments":[],"categories_sizes":[],"default_left":[0,0,0,0,0,0,0,0,0,0,0,0,0,0,0,0,0,0,0],"id":30,"left_children":[1,3,-1,-1,5,7,9,-1,-1,11,13,15,-1,17,-1,-1,-1,-1,-1],"loss_changes":[2.8708448E0,1.5415106E0,0E0,0E0,1.7797612E0,1.0890949E-1,1.1589483E0,0E0,0E0,8.802811E-1,1.107416E0,4.962516E-2,0E0,7.226309E-1,0E0,0E0,0E0,0E0,0E0],"parents":[2147483647,0,0,1,1,4,4,5,5,6,6,9,9,10,10,11,11,13,13],"right_children":[2,4,-1,-1,6,8,10,-1,-1,12,14,16,-1,18,-1,-1,-1,-1,-1],"split_conditions":[-2.6281813E-2,-1.2566721E-1,2.3509404E-1,-2.1085674E-1,-1.4673012E-1,-1.1694775E-1,4.085756E-1,4.8613235E-2,2.1824121E-1,-9.170542E-2,3.040558E0,-8.116515E-3,6.398251E-2,6.6721306E0,-1.8576643E-1,-6.2526844E-2,-2.2416502E-1,6.241346E-3,1.6915157E-1],"split_indices":[29,21,0,0,22,56,21,0,0,15,22,10,0,1,0,0,0,0,0],"split_type":[0,0,0,0,0,0,0,0,0,0,0,0,0,0,0,0,0,0,0],"sum_hessian":[4.707092E1,4.3372284E1,3.6986353E0,2.2389429E0,4.113334E1,3.4231606E0,3.771018E1,1.1740016E0,2.2491589E0,4.8624887E0,3.284769E1,3.8457787E0,1.01671E0,3.130676E1,1.5409304E0,1.246901E0,2.5988774E0,2.9625881E1,1.6808795E0],"tree_param":{"num_deleted":"0","num_feature":"79","num_nodes":"19","size_leaf_vector":"1"}},{"base_weights":[3.2019217E-2,-3.3553135E-2,2.2079797E-1,-1.964974E-1,1.0072498E-2,5.4543453E-1,-4.738059E-2,4.1092258E-2,1.9845483E-1,-2.9647506E-3,-1.9065228E-1,-6.894843E-2,3.0278477E-1,-3.0459324E-3,-1.9451736E-1,2.156306E-1,1.9959044E-2],"categories":[],"categories_nodes":[],"categories_segments":[],"categories_sizes":[],"default_left":[0,0,0,0,0,0,0,0,0,0,0,0,0,0,0,0,0],"id":31,"left_children":[1,3,-1,-1,5,7,9,-1,-1,11,-1,13,15,-1,-1,-1,-1],"loss_changes":[2.1371202E0,1.1674466E0,0E0,0E0,1.2867771E0,1.0156071E-1,9.892442E-1,0E0,0E0,7.528579E-1,0E0,1.0378492E0,6.033445E-1,0E0,0E0,0E0,0E0],"parents":[2147483647,0,0,1,1,4,4,5,5,6,6,9,9,11,11,12,12],"right_children":[2,4,-1,-1,6,8,10,-1,-1,12,-1,14,16,-1,-1,-1,-1],"split_conditions":[-2.6281813E-2,-1.2566721E-1,2.2079797E-1,-1.964974E-1,-1.4673012E-1,-1.1694775E-1,-1.1118804E0,4.1092258E-2,1.9845483E-1,-2.0217905E0,-1.9065228E-1,-2.2476873E0,9.7857606E-1,-3.0459324E-3,-1.9451736E-1,2.156306E-1,1.9959044E-2],"split_indices":[29,21,0,0,22,56,3,0,0,29,0,30,0,0,0,0,0],"split_type":[0,0,0,0,0,0,0,0,0,0,0,0,0,0,0,0,0],"sum_hessian":[4.476189E1,4.1818962E1,2.942931E0,1.8239049E0,3.9995056E1,3.0529888E0,3.6942066E1,1.1580604E0,1.8949283E0,3.5282543E1,1.6595259E0,2.965681E1,5.625731E0,2.7848574E1,1.8082373E0,1.2979774E0,4.3277535E0],"tree_param":{"num_deleted":"0","num_feature":"79","num_nodes":"17","size_leaf_vector":"1"}},{"base_weights":[2.4931233E-2,-4.631556E-2,5.438472E-1,7.19267E-3,-2.0212041E-1,2.2451231E-1,-4.6800517E-2,4.3383002E-2,-1.7099462E-1,1.8327175E-1,-1.4393271E-3,-5.214708E-1,5.948175E-2,-2.6201375E-2,-1.9460298E-1,4.4496454E-2,-6.539517E-2],"categories":[],"categories_nodes":[],"categories_segments":[],"categories_sizes":[],"default_left":[0,0,0,0,0,0,0,0,0,0,0,0,0,0,0,0,0],"id":32,"left_children":[1,3,5,7,-1,-1,-1,9,-1,-1,11,13,15,-1,-1,-1,-1],"loss_changes":[1.663765E0,1.344085E0,8.938476E-1,8.131747E-1,0E0,0E0,0E0,9.280398E-1,0E0,0E0,1.1328157E0,1.5040088E-1,8.218374E-1,0E0,0E0,0E0,0E0],"parents":[2147483647,0,0,1,1,2,2,3,3,7,7,10,10,11,11,12,12],"right_children":[2,4,6,8,-1,-1,-1,10,-1,-1,12,14,16,-1,-1,-1,-1],"split_conditions":[-3.8730282E-1,-1.7886791E-2,-2.0775866E-2,-1.2997025E0,-2.0212041E-1,2.2451231E-1,-4.6800517E-2,-3.6626745E-2,-1.7099462E-1,1.8327175E-1,4.085756E-1,-8.116515E-3,6.6456556E0,-2.6201375E-2,-1.9460298E-1,4.4496454E-2,-6.539517E-2],"split_indices":[37,51,22,3,0,0,0,21,0,0,21,10,1,0,0,0,0],"split_type":[0,0,0,0,0,0,0,0,0,0,0,0,0,0,0,0,0],"sum_hessian":[4.3320465E1,3.8891445E1,4.429022E0,3.6746155E1,2.1452887E0,3.3737302E0,1.0552915E0,3.544829E1,1.297863E0,1.670286E0,3.3778008E1,2.7493517E0,3.1028654E1,1.005235E0,1.7441168E0,2.3855858E1,7.1727967E0],"tree_param":{"num_deleted":"0","num_feature":"79","num_nodes":"17","size_leaf_vector":"1"}},{"base_weights":[1.1247641E-2,-3.5294477E-2,1.9411922E-1,-1.8282472E-1,1.8239061E-3,4.1239083E-2,-1.7687608E-1,5.752247E-4,1.5607965E-1,-1.6915806E-1,1.9024222E-1,-2.2251682E-1,-9.842047E-3,1.3114657E-1,-4.9613077E-2],"categories":[],"categories_nodes":[],"categories_segments":[],"categories_sizes":[],"default_left":[0,0,0,0,0,0,0,0,0,0,0,0,0,0,0],"id":33,"left_children":[1,3,-1,-1,5,7,-1,9,-1,11,13,-1,-1,-1,-1],"loss_changes":[1.3011343E0,8.790791E-1,0E0,0E0,9.496053E-1,7.4279857E-1,0E0,1.1964229E0,0E0,1.5069747E0,1.6133153E0,0E0,0E0,0E0,0E0],"parents":[2147483647,0,0,1,1,4,4,5,5,7,7,9,9,10,10],"right_children":[2,4,-1,-1,6,8,-1,10,-1,12,14,-1,-1,-1,-1],"split_conditions":[-2.6281813E-2,-1.6849859E0,1.9411922E-1,-1.8282472E-1,1.4182525E0,-1.16472796E-1,-1.7687608E-1,1.2152896E0,1.5607965E-1,5.198762E-1,6.6456556E0,-2.2251682E-1,-9.842047E-3,1.3114657E-1,-4.9613077E-2],"split_indices":[29,0,0,0,0,56,0,0,0,21,1,0,0,0,0],"split_type":[0,0,0,0,0,0,0,0,0,0,0,0,0,0,0],"sum_hessian":[4.2197018E1,4.019892E1,1.9980944E0,1.5048463E0,3.8694077E1,3.7148544E1,1.5455326E0,3.5164665E1,1.983877E0,1.861458E1,1.6550085E1,2.7263453E0,1.5888235E1,9.632667E0,6.9174194E0],"tree_param":{"num_deleted":"0","num_feature":"79","num_nodes":"15","size_leaf_vector":"1"}},{"base_weights":[2.794207E-3,-3.6952987E-2,1.7848526E-1,-7.907586E-4,-1.7694551E-1,3.159502E-2,-1.6472274E-1,-4.9467855E-3,1.4958112E-1,8.7406844E-2,-4.2335027E-1,4.8770677E-2,-6.936179E-2,-1.9875175E-1,-6.77169E-2],"categories":[],"categories_nodes":[],"categories_segments":[],"categories_sizes":[],"default_left":[0,0,0,0,0,0,0,0,0,0,0,0,0,0,0],"id":34,"left_children":[1,3,-1,5,-1,7,-1,9,-1,11,13,-1,-1,-1,-1],"loss_changes":[9.955516E-1,7.933233E-1,0E0,6.968502E-1,0E0,6.352288E-1,0E0,1.4040567E0,0E0,7.514673E-1,1.6089058E-1,0E0,0E0,0E0,0E0],"parents":[2147483647,0,0,1,1,3,3,5,5,7,7,9,9,10,10],"right_children":[2,4,-1,6,-1,8,-1,10,-1,12,14,-1,-1,-1,-1],"split_conditions":[-2.6281813E-2,6.982117E-1,1.7848526E-1,3.2673407E0,-1.7694551E-1,6.6721306E0,-1.6472274E-1,6.3314004E0,1.4958112E-1,1.215646E0,4.308357E-1,4.8770677E-2,-6.936179E-2,-1.9875175E-1,-6.77169E-2],"split_indices":[29,18,0,14,0,1,0,1,0,0,21,0,0,0,0],"split_type":[0,0,0,0,0,0,0,0,0,0,0,0,0,0,0],"sum_hessian":[4.036399E1,3.870369E1,1.6603028E0,3.7267498E1,1.4361899E0,3.6078793E1,1.1887062E0,3.4378223E1,1.7005689E0,2.8810104E1,5.56812E0,2.370723E1,5.102873E0,1.4550345E0,4.1130857E0],"tree_param":{"num_deleted":"0","num_feature":"79","num_nodes":"15","size_leaf_vector":"1"}},{"base_weights":[-6.73931E-3,-4.4446863E-2,1.5654731E-1,-2.1822543E-3,-1.8662456E-1,-1.1515111E-1,1.3820845E-1,-2.4506146E-2,-1.9314009E-1,3.008385E-1,-2.027832E-1,-1.3826363E-1,2.6376325E-1,7.2895426E-1,-8.450269E-2,-2.0176017E-1,1.7036454E-1,-4.3064416E-3,-1.9323398E-1,2.8706826E-3,1.8172215E-1,5.9058975E-2,2.4051392E-1,-9.971159E-2,1.7440084E-1,-4.7945168E-2,1.2364789E-1],"categories":[],"categories_nodes":[],"categories_segments":[],"categories_sizes":[],"default_left":[0,0,0,0,0,0,0,0,0,0,0,0,0,0,0,0,0,0,0,0,0,0,0,0,0,0,0],"id":35,"left_children":[1,3,-1,5,-1,7,9,11,-1,13,15,17,19,21,23,-1,25,-1,-1,-1,-1,-1,-1,-1,-1,-1,-1],"loss_changes":[8.2777154E-1,9.4105035E-1,0E0,6.02307E-1,0E0,9.921186E-1,1.0004426E0,6.593399E-1,0E0,2.020234E0,1.1781715E0,8.8554025E-1,4.9130496E-1,6.392932E-2,1.3723694E0,0E0,3.9954364E-1,0E0,0E0,0E0,0E0,0E0,0E0,0E0,0E0,0E0,0E0],"parents":[2147483647,0,0,1,1,3,3,5,5,6,6,7,7,9,9,10,10,11,11,12,12,13,13,14,14,16,16],"right_children":[2,4,-1,6,-1,8,10,12,-1,14,16,18,20,22,24,-1,26,-1,-1,-1,-1,-1,-1,-1,-1,-1,-1],"split_conditions":[1.3821271E-1,-1.5143621E-4,1.5654731E-1,1.2152896E0,-1.8662456E-1,9.7857606E-1,1.215646E0,-5.723661E-3,-1.9314009E-1,6.6456556E0,1.3388388E0,-5.2248333E-3,2.2856839E0,-1.7310326E-1,6.6721306E0,-2.0176017E-1,-8.248062E-2,-4.3064416E-3,-1.9323398E-1,2.8706826E-3,1.8172215E-1,5.9058975E-2,2.4051392E-1,-9.971159E-2,1.7440084E-1,-4.7945168E-2,1.2364789E-1],"split_indices":[48,9,0,0,0,0,0,28,0,1,0,10,15,1,1,0,5,0,0,0,0,0,0,0,0,0,0],"split_type":[0,0,0,0,0,0,0,0,0,0,0,0,0,0,0,0,0,0,0,0,0,0,0,0,0,0,0],"sum_hessian":[3.936849E1,3.760189E1,1.7665961E0,3.5973545E1,1.6283479E0,2.0033154E1,1.5940391E1,1.7994139E1,2.0390134E0,1.0872632E1,5.067759E0,1.3275643E1,4.7184963E0,4.7280436E0,6.1445885E0,1.8882902E0,3.1794689E0,1.1489617E1,1.786026E0,3.2963068E0,1.4221892E0,1.0145144E0,3.7135293E0,4.842654E0,1.3019342E0,1.4873989E0,1.69207E0],"tree_param":{"num_deleted":"0","num_feature":"79","num_nodes":"27","size_leaf_vector":"1"}},{"base_weights":[-5.7031875E-3,-5.4088145E-2,4.2198613E-1,-1.5079473E-2,-1.7277212E-1,-8.838253E-3,1.9456421E-1,-3.6027983E-1,2.6432248E-2,-1.6210885E-1,1.0812887E-2,6.952682E-2,-1.5944868E-1,1.9474272E-2,2.0939055E-1,1.9796306E-2,-1.6676714E-1],"categories":[],"categories_nodes":[],"categories_segments":[],"categories_sizes":[],"default_left":[0,0,0,0,0,0,0,0,0,0,0,0,0,0,0,0,0],"id":36,"left_children":[1,3,5,7,-1,-1,-1,9,11,-1,-1,13,-1,15,-1,-1,-1],"loss_changes":[8.083258E-1,7.0349175E-1,4.2530805E-1,4.907244E-1,0E0,0E0,0E0,2.8162485E-1,7.800775E-1,0E0,0E0,9.167077E-1,0E0,7.973273E-1,0E0,0E0,0E0],"parents":[2147483647,0,0,1,1,2,2,3,3,7,7,8,8,11,11,13,13],"right_children":[2,4,6,8,-1,-1,-1,10,12,-1,-1,14,-1,16,-1,-1,-1],"split_conditions":[-3.8730282E-1,-1.7886791E-2,-1.1694775E-1,-1.7310326E-1,-1.7277212E-1,-8.838253E-3,1.9456421E-1,-6.8514044E-3,2.545314E0,-1.6210885E-1,1.0812887E-2,2.2856839E0,-1.5944868E-1,8.963614E-3,2.0939055E-1,1.9796306E-2,-1.6676714E-1],"split_indices":[37,51,56,1,0,0,0,10,22,0,0,15,0,8,0,0,0],"split_type":[0,0,0,0,0,0,0,0,0,0,0,0,0,0,0,0,0],"sum_hessian":[3.6958427E1,3.3986977E1,2.9714494E0,3.2580326E1,1.4066504E0,1.2836356E0,1.6878138E0,2.6730413E0,2.9907286E1,1.5880255E0,1.0850159E0,2.8575487E1,1.3317984E0,2.7422403E1,1.1530831E0,2.6190437E1,1.2319655E0],"tree_param":{"num_deleted":"0","num_feature":"79","num_nodes":"17","size_leaf_vector":"1"}},{"base_weights":[-1.2031631E-2,-4.336328E-2,1.530366E-1,-2.155808E-1,4.866334E-2,-2.850551E-3,-2.2115803E-1,9.734978E-2,-1.5161932E-1,1.4056225E-1,-1.2068473E-1,-1.1276538E-1,2.342449E-1,-2.1382753E-2,1.725701E-1,-2.5232983E-1,1.5951794E-1,2.1894868E-1,9.864549E-2,2.4790285E-2,-8.320436E-2,-6.835038E-3,-1.2821794E-1,6.1469156E-2,-1.5873687E-1],"categories":[],"categories_nodes":[],"categories_segments":[],"categories_sizes":[],"default_left":[0,0,0,0,0,0,0,0,0,0,0,0,0,0,0,0,0,0,0,0,0,0,0,0,0],"id":37,"left_children":[1,3,-1,5,7,9,-1,11,-1,13,-1,15,17,19,-1,21,-1,-1,23,-1,-1,-1,-1,-1,-1],"loss_changes":[6.3637793E-1,5.8647144E-1,0E0,1.422771E0,7.101396E-1,6.365423E-1,0E0,6.983665E-1,0E0,5.8889925E-1,0E0,1.0238433E0,9.0041053E-1,2.0747891E-1,0E0,3.4423345E-1,0E0,0E0,9.433672E-1,0E0,0E0,0E0,0E0,0E0,0E0],"parents":[2147483647,0,0,1,1,3,3,4,4,5,5,7,7,9,9,11,11,12,12,13,13,15,15,18,18],"right_children":[2,4,-1,6,8,10,-1,12,-1,14,-1,16,18,20,-1,22,-1,-1,24,-1,-1,-1,-1,-1,-1],"split_conditions":[-2.6281813E-2,8.4708554E-1,1.530366E-1,6.7425984E-1,1.4182525E0,-1.9389645E0,-2.2115803E-1,-6.9116475E-3,-1.5161932E-1,2.2856839E0,-1.2068473E-1,6.6721306E0,-6.038119E-3,-7.6948116E-3,1.725701E-1,6.6456556E0,1.5951794E-1,2.1894868E-1,-2.045174E0,2.4790285E-2,-8.320436E-2,-6.835038E-3,-1.2821794E-1,6.1469156E-2,-1.5873687E-1],"split_indices":[29,0,0,13,0,32,0,10,0,15,0,1,10,10,0,1,0,0,30,0,0,0,0,0,0],"split_type":[0,0,0,0,0,0,0,0,0,0,0,0,0,0,0,0,0,0,0,0,0,0,0,0,0],"sum_hessian":[3.654645E1,3.534268E1,1.2037727E0,1.1840993E1,2.3501686E1,9.124994E0,2.7159991E0,2.2361073E1,1.1406138E0,7.19116E0,1.9338338E0,8.890951E0,1.3470121E1,5.931919E0,1.2592412E0,7.8085055E0,1.082446E0,1.9523815E0,1.151774E1,4.699386E0,1.2325329E0,3.8675036E0,3.9410017E0,1.0426615E1,1.0911255E0],"tree_param":{"num_deleted":"0","num_feature":"79","num_nodes":"25","size_leaf_vector":"1"}},{"base_weights":[-1.4354175E-2,1.7451804E-2,-1.6109052E-1,-2.7141744E-2,2.2909467E-1,3.6058977E-2,-1.760441E-1,-1.32698E-2,1.4012995E-1,-1.1726787E-1,1.09292835E-1,-5.3088376E-3,-1.8876277E-1,8.496727E-2,-5.9406646E-2],"categories":[],"categories_nodes":[],"categories_segments":[],"categories_sizes":[],"default_left":[0,0,0,0,0,0,0,0,0,0,0,0,0,0,0],"id":38,"left_children":[1,3,-1,5,-1,7,-1,9,-1,11,13,-1,-1,-1,-1],"loss_changes":[6.155074E-1,1.1967494E0,0E0,1.2349256E0,0E0,6.818203E-1,0E0,3.8863266E-1,0E0,8.265143E-1,8.071778E-1,0E0,0E0,0E0,0E0],"parents":[2147483647,0,0,1,1,3,3,5,5,7,7,9,9,10,10],"right_children":[2,4,-1,6,-1,8,-1,10,-1,12,14,-1,-1,-1,-1],"split_conditions":[2.3548489E0,2.2856839E0,-1.6109052E-1,-1.0133348E-1,2.2909467E-1,-4.593493E-1,-1.760441E-1,1.2152896E0,1.4012995E-1,9.7857606E-1,1.215646E0,-5.3088376E-3,-1.8876277E-1,8.496727E-2,-5.9406646E-2],"split_indices":[15,15,0,23,0,37,0,0,0,0,0,0,0,0,0],"split_type":[0,0,0,0,0,0,0,0,0,0,0,0,0,0,0],"sum_hessian":[3.5465343E1,3.434192E1,1.1234212E0,3.331463E1,1.027292E0,3.077495E1,2.5396776E0,2.8484383E1,2.2905686E0,1.5432578E1,1.3051805E1,1.3785824E1,1.6467533E0,8.384699E0,4.667106E0],"tree_param":{"num_deleted":"0","num_feature":"79","num_nodes":"15","size_leaf_vector":"1"}},{"base_weights":[-1.6492257E-2,-9.398765E-2,1.5066907E-1,-3.0053293E-2,-1.8679824E-1,1.4832951E-1,1.9579483E-2,1.8578744E-2,-1.5922374E-1,2.3879966E-1,-4.6368378E-1,-9.950212E-2,1.9754772E-1,1.7753366E-1,7.843569E-2,-1.6998918E-1,-3.4293864E-2,1.8152013E-2,-1.8661314E-1,6.42731E-1,-1.9021961E-1,-1.591802E-1,3.119175E-1,-3.6383953E-2,6.2097605E-2,5.835127E-2,2.180733E-1,-1.0985976E-2,-7.401366E-2,-2.1946494E-2,1.2976165E-1],"categories":[],"categories_nodes":[],"categories_segments":[],"categories_sizes":[],"default_left":[0,0,0,0,0,0,0,0,0,0,0,0,0,0,0,0,0,0,0,0,0,0,0,0,0,0,0,0,0,0,0],"id":39,"left_children":[1,3,5,7,-1,-1,9,11,-1,13,15,17,19,-1,21,-1,-1,23,-1,25,27,-1,29,-1,-1,-1,-1,-1,-1,-1,-1],"loss_changes":[4.72539E-1,8.192724E-1,5.1270807E-1,5.7399815E-1,0E0,0E0,1.1100976E0,4.8633742E-1,0E0,3.5828412E-1,5.3331316E-2,8.701508E-1,1.6954706E0,0E0,1.0284917E0,0E0,0E0,3.509205E-1,0E0,2.7308583E-2,3.9925784E-2,0E0,2.6466385E-1,0E0,0E0,0E0,0E0,0E0,0E0,0E0,0E0],"parents":[2147483647,0,0,1,1,2,2,3,3,6,6,7,7,9,9,10,10,11,11,12,12,14,14,17,17,19,19,20,20,22,22],"right_children":[2,4,6,8,-1,-1,10,12,-1,14,16,18,20,-1,22,-1,-1,24,-1,26,28,-1,30,-1,-1,-1,-1,-1,-1,-1,-1],"split_conditions":[-2.3064404E0,-2.3640888E0,-5.7820845E-3,1.215646E0,-1.8679824E-1,1.4832951E-1,-2.045174E0,1.2152896E0,-1.5922374E-1,-1.9264671E0,-1.3848504E-1,8.554341E-1,6.6456556E0,1.7753366E-1,9.118381E-1,-1.6998918E-1,-3.4293864E-2,8.4708554E-1,-1.8661314E-1,1.2089694E-1,-7.845419E-3,-1.591802E-1,-8.248062E-2,-3.6383953E-2,6.2097605E-2,5.835127E-2,2.180733E-1,-1.0985976E-2,-7.401366E-2,-2.1946494E-2,1.2976165E-1],"split_indices":[29,29,10,0,0,0,30,0,0,32,34,0,1,0,0,0,0,0,0,14,10,0,5,0,0,0,0,0,0,0,0],"split_type":[0,0,0,0,0,0,0,0,0,0,0,0,0,0,0,0,0,0,0,0,0,0,0,0,0,0,0,0,0,0,0],"sum_hessian":[3.438442E1,2.3792187E1,1.059223E1,2.2168158E1,1.6240289E0,2.1589644E0,8.433266E0,2.1083246E1,1.0849125E0,6.1495414E0,2.283724E0,1.2969924E1,8.113322E0,1.0806614E0,5.06888E0,1.2836267E0,1.0000975E0,1.13742E1,1.5957235E0,3.470935E0,4.642387E0,1.0520518E0,4.0168285E0,6.7488704E0,4.62533E0,1.0722388E0,2.3986962E0,1.6915088E0,2.9508781E0,1.0519834E0,2.964845E0],"tree_param":{"num_deleted":"0","num_feature":"79","num_nodes":"31","size_leaf_vector":"1"}},{"base_weights":[-2.1704737E-2,-5.6197196E-2,3.0802593E-1,-3.5163394E-1,-7.4248286E-3,1.4917947E-1,-2.1156548E-2,-8.71117E-3,-1.6035658E-1,1.1845228E-1,-8.4893994E-2,2.848728E-1,-2.0396672E-2,-3.8541386E-1,4.4736233E-2,4.5208715E-2,1.4395715E-1,-2.1296836E-1,7.780184E-2,1.7748708E-1,-9.973254E-2,1.7351681E-2,1.414284E-1,-1.0590115E-1,6.370512E-2],"categories":[],"categories_nodes":[],"categories_segments":[],"categories_sizes":[],"default_left":[0,0,0,0,0,0,0,0,0,0,0,0,0,0,0,0,0,0,0,0,0,0,0,0,0],"id":40,"left_children":[1,3,5,7,9,-1,-1,-1,-1,11,13,15,-1,17,19,-1,-1,-1,-1,21,23,-1,-1,-1,-1],"loss_changes":[4.0531766E-1,4.5460254E-1,2.775642E-1,2.4846953E-1,2.8559965E-1,0E0,0E0,0E0,0E0,3.6632925E-1,7.2133905E-1,8.73065E-2,0E0,1.3453813E0,2.7705342E-1,0E0,0E0,0E0,0E0,2.3323897E-1,6.374223E-1,0E0,0E0,0E0,0E0],"parents":[2147483647,0,0,1,1,2,2,3,3,4,4,9,9,10,10,11,11,13,13,14,14,19,19,20,20],"right_children":[2,4,6,8,10,-1,-1,-1,-1,12,14,16,-1,18,20,-1,-1,-1,-1,22,24,-1,-1,-1,-1],"split_conditions":[-1.16472796E-1,4.085756E-1,-5.318568E-2,-1.639792E-2,2.3934707E-1,1.4917947E-1,-2.1156548E-2,-8.71117E-3,-1.6035658E-1,6.6456556E0,8.4708554E-1,1.2055156E0,-2.0396672E-2,2.2856839E0,9.7857606E-1,4.5208715E-2,1.4395715E-1,-2.1296836E-1,7.780184E-2,2.7462332E0,1.3388388E0,1.7351681E-2,1.414284E-1,-1.0590115E-1,6.370512E-2],"split_indices":[56,21,56,13,22,0,0,0,0,1,0,0,0,15,0,0,0,0,0,13,0,0,0,0,0],"split_type":[0,0,0,0,0,0,0,0,0,0,0,0,0,0,0,0,0,0,0,0,0,0,0,0,0],"sum_hessian":[3.311588E1,3.0730762E1,2.385117E0,3.4744883E0,2.7256273E1,1.3810883E0,1.0040288E0,1.6763464E0,1.798142E0,1.0182324E1,1.707395E1,5.1010723E0,5.081252E0,4.5507755E0,1.2523174E1,4.0718904E0,1.0291816E0,2.9600554E0,1.59072E0,6.407156E0,6.1160183E0,5.4041686E0,1.0029871E0,3.303741E0,2.8122773E0],"tree_param":{"num_deleted":"0","num_feature":"79","num_nodes":"25","size_leaf_vector":"1"}},{"base_weights":[-1.4583561E-2,-3.9165273E-2,9.765839E-2,-6.2657915E-2,9.837991E-2,-2.4968806E-1,-3.0020336E-3,-3.599225E-2,-1.123677E-1,1.692194E-1,-7.449284E-2,-6.2468253E-2,2.9127965E-2,-9.860056E-3,2.1849641E-1,-3.527679E-1,3.60522E-2,3.7686553E-2,1.0479291E-1,-1.9625641E-1,4.26683E-2,4.0184654E-2,-4.435481E-2],"categories":[],"categories_nodes":[],"categories_segments":[],"categories_sizes":[],"default_left":[0,0,0,0,0,0,0,0,0,0,0,0,0,0,0,0,0,0,0,0,0,0,0],"id":41,"left_children":[1,3,-1,5,-1,7,9,11,-1,13,15,-1,-1,-1,17,19,21,-1,-1,-1,-1,-1,-1],"loss_changes":[2.9326364E-1,2.9809982E-1,0E0,3.4610388E-1,0E0,1.8680152E-1,3.152599E-1,1.0902983E-1,0E0,8.203153E-2,5.684359E-1,0E0,0E0,0E0,3.1124473E-2,8.731885E-1,2.689043E-1,0E0,0E0,0E0,0E0,0E0,0E0],"parents":[2147483647,0,0,1,1,3,3,5,5,6,6,7,7,9,9,10,10,14,14,15,15,16,16],"right_children":[2,4,-1,6,-1,8,10,12,-1,14,16,-1,-1,-1,18,20,22,-1,-1,-1,-1,-1,-1],"split_conditions":[1.3821271E-1,6.6721306E0,9.765839E-2,-7.7249333E-3,9.837991E-2,6.3314004E0,2.3934707E-1,-7.124036E-2,-1.123677E-1,-3.0671243E-2,8.4708554E-1,-6.2468253E-2,2.9127965E-2,-9.860056E-3,-4.8764758E-2,-3.8514648E-2,1.215646E0,3.7686553E-2,1.0479291E-1,-1.9625641E-1,4.26683E-2,4.0184654E-2,-4.435481E-2],"split_indices":[48,1,0,10,0,1,22,1,0,12,0,0,0,0,28,70,0,0,0,0,0,0,0],"split_type":[0,0,0,0,0,0,0,0,0,0,0,0,0,0,0,0,0,0,0,0,0,0,0],"sum_hessian":[3.2552235E1,3.1183294E1,1.3689411E0,3.0087168E1,1.0961276E0,6.5056148E0,2.3581553E1,2.874545E0,3.63107E0,6.5164375E0,1.7065115E1,1.0068694E0,1.8676755E0,1.3427606E0,5.173677E0,4.228796E0,1.2836319E1,4.1719775E0,1.0016994E0,2.428434E0,1.8003622E0,8.554248E0,4.2820706E0],"tree_param":{"num_deleted":"0","num_feature":"79","num_nodes":"23","size_leaf_vector":"1"}},{"base_weights":[-1.1615253E-2,-3.3496637E-2,9.849048E-2,-1.0896817E-1,8.144467E-2,-2.9934756E-2,-1.837085E-1,2.6068407E-1,-1.9889174E-1,3.197514E-2,-1.4874785E-1,1.7940426E-1,-2.0880053E-2,-1.834237E-1,8.1768446E-2,-2.2943996E-2,1.3411577E-1,-1.1220812E-2,-1.457911E-3,7.578193E-2,-4.9507957E-2,-2.6148865E-2,1.3862029E-1],"categories":[],"categories_nodes":[],"categories_segments":[],"categories_sizes":[],"default_left":[0,0,0,0,0,0,0,0,0,0,0,0,0,0,0,0,0,0,0,0,0,0,0],"id":42,"left_children":[1,3,-1,5,7,9,-1,11,13,15,-1,-1,17,-1,19,21,-1,-1,-1,-1,-1,-1,-1],"loss_changes":[2.5688773E-1,2.861854E-1,0E0,7.664104E-1,7.172622E-1,5.379013E-1,0E0,8.2083595E-1,7.1364015E-1,3.958652E-1,0E0,0E0,1.3018858E-3,0E0,2.2269872E-1,5.352118E-1,0E0,0E0,0E0,0E0,0E0,0E0,0E0],"parents":[2147483647,0,0,1,1,3,3,4,4,5,5,7,7,8,8,9,9,12,12,14,14,15,15],"right_children":[2,4,-1,6,8,10,-1,12,14,16,-1,-1,18,-1,20,22,-1,-1,-1,-1,-1,-1,-1],"split_conditions":[-4.2868254E-1,1.2152896E0,9.849048E-2,9.7857606E-1,1.215646E0,4.4614714E-1,-1.837085E-1,6.6456556E0,1.3388388E0,-1.4698835E-1,-1.4874785E-1,1.7940426E-1,-7.0501394E-3,-1.834237E-1,1.3785456E0,9.118381E-1,1.3411577E-1,-1.1220812E-2,-1.457911E-3,7.578193E-2,-4.9507957E-2,-2.6148865E-2,1.3862029E-1],"split_indices":[29,0,0,0,0,1,0,1,0,56,0,0,12,0,0,0,0,0,0,0,0,0,0],"split_type":[0,0,0,0,0,0,0,0,0,0,0,0,0,0,0,0,0,0,0,0,0,0,0],"sum_hessian":[3.205938E1,3.0967379E1,1.0919993E0,1.87246E1,1.2242779E1,1.7099434E1,1.6251665E0,7.510729E0,4.7320504E0,1.591583E1,1.1836042E0,2.905669E0,4.6050596E0,1.4387965E0,3.293254E0,1.4890396E1,1.0254333E0,1.609941E0,2.9951186E0,1.932192E0,1.3610619E0,1.3873709E1,1.0166878E0],"tree_param":{"num_deleted":"0","num_feature":"79","num_nodes":"23","size_leaf_vector":"1"}},{"base_weights":[-8.717389E-3,-2.8657368E-1,2.075265E-2,-8.011215E-3,-1.1994018E-1,1.4140727E-1,-7.011154E-2,1.3471577E-1,4.4645015E-2,-1.4234044E-1,2.1461314E-3,1.1763941E-1,-4.0797915E-2,-6.261201E-2,9.684417E-2,7.526504E-3,3.9258365E-2,-2.6444063E-2,6.637641E-4,-1.2878989E-1,9.749205E-2,-1.67425E-1,-2.9120147E-3],"categories":[],"categories_nodes":[],"categories_segments":[],"categories_sizes":[],"default_left":[0,0,0,0,0,0,0,0,0,0,0,0,0,0,0,0,0,0,0,0,0,0,0],"id":43,"left_children":[1,3,5,-1,-1,7,9,-1,11,-1,13,15,17,19,-1,-1,-1,-1,-1,21,-1,-1,-1],"loss_changes":[2.6637688E-1,8.104846E-2,3.353811E-1,0E0,0E0,3.6945754E-1,5.153329E-1,0E0,7.380517E-2,0E0,3.5100272E-1,4.333481E-3,1.2088048E-2,4.0327308E-1,0E0,0E0,0E0,0E0,0E0,6.4647704E-1,0E0,0E0,0E0],"parents":[2147483647,0,0,1,1,2,2,5,5,6,6,8,8,10,10,11,11,12,12,13,13,19,19],"right_children":[2,4,6,-1,-1,8,10,-1,12,-1,14,16,18,20,-1,-1,-1,-1,-1,22,-1,-1,-1],"split_conditions":[-7.875541E-3,-1.4594398E-1,-1.4550141E-2,-8.011215E-3,-1.1994018E-1,4.040011E-1,6.5343684E-1,1.3471577E-1,6.3503957E0,-1.4234044E-1,1.3518708E0,5.183049E-1,-7.0501394E-3,2.2551355E0,9.684417E-2,7.526504E-3,3.9258365E-2,-2.6444063E-2,6.637641E-4,8.4708554E-1,9.749205E-2,-1.67425E-1,-2.9120147E-3],"split_indices":[10,20,20,0,0,1,21,0,1,0,0,13,12,15,0,0,0,0,0,0,0,0,0],"split_type":[0,0,0,0,0,0,0,0,0,0,0,0,0,0,0,0,0,0,0,0,0,0,0],"sum_hessian":[3.0804573E1,2.1173205E0,2.8687252E1,1.017615E0,1.0997057E0,1.208451E1,1.6602743E1,2.0203238E0,1.0064186E1,1.6731882E0,1.4929555E1,5.2242556E0,4.83993E0,1.3090669E1,1.8388866E0,1.0152339E0,4.2090216E0,1.8042527E0,3.0356774E0,1.1751827E1,1.3388411E0,1.7514324E0,1.0000395E1],"tree_param":{"num_deleted":"0","num_feature":"79","num_nodes":"23","size_leaf_vector":"1"}},{"base_weights":[-1.0307949E-2,-3.2261737E-2,9.809994E-2,-2.2833465E-1,2.29743E-2,-6.691602E-2,-9.201954E-2,1.7214763E-1,-5.283685E-2,-6.838155E-2,2.658186E-2,8.159461E-3,3.4677085E-1,-1.2549601E-1,5.9179277E-3,1.655319E-1,-2.2353262E-2,-4.6190474E-2,7.361988E-2,1.1736349E-2,-1.1517183E-1],"categories":[],"categories_nodes":[],"categories_segments":[],"categories_sizes":[],"default_left":[0,0,0,0,0,0,0,0,0,0,0,0,0,0,0,0,0,0,0,0,0],"id":44,"left_children":[1,3,-1,5,7,9,-1,11,13,-1,-1,-1,15,-1,17,-1,-1,19,-1,-1,-1],"loss_changes":[2.4459471E-1,3.3648407E-1,0E0,6.5700114E-2,2.8922826E-1,1.0800751E-1,0E0,2.0778298E-1,3.7159267E-1,0E0,0E0,0E0,3.6992463E-1,0E0,2.0843555E-1,0E0,0E0,4.1300336E-1,0E0,0E0,0E0],"parents":[2147483647,0,0,1,1,3,3,4,4,5,5,7,7,8,8,12,12,14,14,17,17],"right_children":[2,4,-1,6,8,10,-1,12,14,-1,-1,-1,16,-1,18,-1,-1,20,-1,-1,-1],"split_conditions":[6.6721306E0,-7.7249333E-3,9.809994E-2,5.985209E0,2.3934707E-1,-6.3760914E-2,-9.201954E-2,-1.4300988E0,6.5343684E-1,-6.838155E-2,2.658186E-2,8.159461E-3,-5.917632E-3,-1.2549601E-1,1.3518708E0,1.655319E-1,-2.2353262E-2,1.215646E0,7.361988E-2,1.1736349E-2,-1.1517183E-1],"split_indices":[1,10,0,1,22,1,0,0,21,0,0,0,10,0,0,0,0,0,0,0,0],"split_type":[0,0,0,0,0,0,0,0,0,0,0,0,0,0,0,0,0,0,0,0,0],"sum_hessian":[3.0605587E1,2.9584429E1,1.0211575E0,5.813673E0,2.3770756E1,2.5064595E0,3.3072133E0,7.581642E0,1.6189116E1,1.0026826E0,1.5037769E0,4.774351E0,2.8072908E0,1.3945535E0,1.4794561E1,1.6800193E0,1.1272714E0,1.2813596E1,1.980965E0,1.0935338E1,1.8782582E0],"tree_param":{"num_deleted":"0","num_feature":"79","num_nodes":"21","size_leaf_vector":"1"}},{"base_weights":[-9.750778E-3,1.5549513E-2,-9.396606E-2,-1.5850093E-2,1.2565109E-1,1.5338483E-2,-1.143708E-1,-3.38492E-2,1.4059658E-1,5.0154096E-3,-1.1815322E-1,9.671951E-2,4.2516924E-2,7.590425E-2,-8.336182E-3,-5.426724E-2,7.774611E-2],"categories":[],"categories_nodes":[],"categories_segments":[],"categories_sizes":[],"default_left":[0,0,0,0,0,0,0,0,0,0,0,0,0,0,0,0,0],"id":45,"left_children":[1,3,-1,5,-1,7,-1,9,11,13,-1,-1,15,-1,-1,-1,-1],"loss_changes":[2.4485417E-1,3.8404799E-1,0E0,3.3193567E-1,0E0,1.7311591E-1,0E0,2.8776556E-1,1.2713826E-1,1.6504282E-1,0E0,0E0,3.5095415E-1,0E0,0E0,0E0,0E0],"parents":[2147483647,0,0,1,1,3,3,5,5,7,7,8,8,9,9,12,12],"right_children":[2,4,-1,6,-1,8,-1,10,12,14,-1,-1,16,-1,-1,-1,-1],"split_conditions":[2.545314E0,1.8853173E0,-9.396606E-2,-1.0133348E-1,1.2565109E-1,-8.261207E-2,-1.143708E-1,-6.514947E-2,-5.5411113E-3,-5.888686E-2,-1.1815322E-1,9.671951E-2,1.325196E0,7.590425E-2,-8.336182E-3,-5.426724E-2,7.774611E-2],"split_indices":[22,23,0,23,0,5,0,4,10,21,0,0,0,0,0,0,0],"split_type":[0,0,0,0,0,0,0,0,0,0,0,0,0,0,0,0,0],"sum_hessian":[3.0256578E1,2.880395E1,1.452629E0,2.76146E1,1.1893507E0,2.6325527E1,1.2890711E0,1.9426634E1,6.898893E0,1.8423702E1,1.0029324E0,1.6161214E0,5.2827716E0,1.3679967E0,1.7055706E1,2.6819756E0,2.6007957E0],"tree_param":{"num_deleted":"0","num_feature":"79","num_nodes":"17","size_leaf_vector":"1"}},{"base_weights":[-8.168189E-3,3.3976823E-2,-1.9995114E-1,-5.9117038E-2,2.57766E-1,-1.5525648E-1,-1.86654E-2,5.012851E-3,-1.6004221E-1,1.6537279E-1,1.9031648E-2,-8.318183E-2,2.001473E-1,6.2141832E-2,-1.4000054E-1,-5.986666E-3,1.1774325E-2,9.647424E-2,-5.7443194E-3,-4.0846292E-2,2.904812E-1,2.774939E-2,-4.0438816E-2,1.12731E-1,2.236153E-2],"categories":[],"categories_nodes":[],"categories_segments":[],"categories_sizes":[],"default_left":[0,0,0,0,0,0,0,0,0,0,0,0,0,0,0,0,0,0,0,0,0,0,0,0,0],"id":46,"left_children":[1,3,5,7,9,-1,11,13,-1,-1,15,-1,17,19,-1,-1,-1,-1,-1,21,23,-1,-1,-1,-1],"loss_changes":[2.5723183E-1,5.622609E-1,3.200771E-1,5.9151286E-1,5.430298E-1,0E0,3.2051948E-1,5.151746E-1,0E0,0E0,5.0332034E-3,0E0,8.918179E-2,4.1106412E-1,0E0,0E0,0E0,0E0,0E0,1.700114E-1,7.1442276E-2,0E0,0E0,0E0,0E0],"parents":[2147483647,0,0,1,1,2,2,3,3,4,4,6,6,7,7,10,10,12,12,13,13,19,19,20,20],"right_children":[2,4,6,8,10,-1,12,14,-1,-1,16,-1,18,20,-1,-1,-1,-1,-1,22,24,-1,-1,-1,-1],"split_conditions":[1.215646E0,1.2152896E0,-2.0914202E0,9.7857606E-1,6.6456556E0,-1.5525648E-1,1.3518708E0,4.4614714E-1,-1.6004221E-1,1.6537279E-1,-7.0501394E-3,-8.318183E-2,1.3785456E0,-2.3064404E0,-1.4000054E-1,-5.986666E-3,1.1774325E-2,9.647424E-2,-5.7443194E-3,-7.6044463E-3,4.040011E-1,2.774939E-2,-4.0438816E-2,1.12731E-1,2.236153E-2],"split_indices":[0,0,36,0,1,0,0,1,0,0,12,0,0,29,0,0,0,0,0,10,1,0,0,0,0],"split_type":[0,0,0,0,0,0,0,0,0,0,0,0,0,0,0,0,0,0,0,0,0,0,0,0,0],"sum_hessian":[2.9984482E1,2.5257E1,4.7274823E0,1.8356665E1,6.9003367E0,1.0439668E0,3.6835155E0,1.7042116E1,1.3145477E0,2.5081017E0,4.392235E0,1.5657908E0,2.1177247E0,1.5975459E1,1.0666572E0,1.5042136E0,2.8880212E0,1.062784E0,1.0549408E0,1.1575615E1,4.399844E0,4.7910547E0,6.7845597E0,2.6235213E0,1.776323E0],"tree_param":{"num_deleted":"0","num_feature":"79","num_nodes":"25","size_leaf_vector":"1"}},{"base_weights":[-1.2039107E-2,-7.97589E-2,1.3923991E-2,3.8257845E-2,-8.362616E-2,9.060521E-3,1.07808016E-1,3.7337802E-2,-1.0251266E-1,8.51111E-3,1.00236975E-1,-3.3747386E-2,1.6250057E-2],"categories":[],"categories_nodes":[],"categories_segments":[],"categories_sizes":[],"default_left":[0,0,0,0,0,0,0,0,0,0,0,0,0],"id":47,"left_children":[1,-1,3,5,-1,7,-1,9,-1,11,-1,-1,-1],"loss_changes":[2.026398E-1,0E0,2.1247688E-1,2.5025985E-1,0E0,2.6879054E-1,0E0,2.0923132E-1,0E0,1.3658202E-1,0E0,0E0,0E0],"parents":[2147483647,0,0,2,2,3,3,5,5,7,7,9,9],"right_children":[2,-1,4,6,-1,8,-1,10,-1,12,-1,-1,-1],"split_conditions":[-7.875541E-3,-7.97589E-2,2.545314E0,-3.8514648E-2,-8.362616E-2,-1.0133348E-1,1.07808016E-1,-1.16472796E-1,-1.0251266E-1,8.4708554E-1,1.00236975E-1,-3.3747386E-2,1.6250057E-2],"split_indices":[10,0,22,70,0,23,0,56,0,0,0,0,0],"split_type":[0,0,0,0,0,0,0,0,0,0,0,0,0],"sum_hessian":[2.9187603E1,1.8510537E0,2.733655E1,2.604075E1,1.2957996E0,2.481278E1,1.2279706E0,2.3788614E1,1.0241654E0,2.2620197E1,1.1684164E0,5.7957354E0,1.6824463E1],"tree_param":{"num_deleted":"0","num_feature":"79","num_nodes":"13","size_leaf_vector":"1"}},{"base_weights":[-1.1296618E-2,2.5839178E-2,-1.8016927E-1,-5.1455885E-2,2.1129431E-1,-1.2986119E-1,-2.7879141E-2,3.8962252E-3,-1.461144E-1,1.5059726E-1,9.431645E-4,-7.8834355E-2,5.132838E-2,1.0481334E-1,-1.1074112E-1,-7.839757E-3,5.3364756E-3,-8.158781E-3,3.042512E-1,-1.4841387E-1,1.8027129E-2,-8.199573E-2,2.3966307E-2,2.2595301E-2,1.3311112E-1,2.9948791E-2,-3.758274E-2],"categories":[],"categories_nodes":[],"categories_segments":[],"categories_sizes":[],"default_left":[0,0,0,0,0,0,0,0,0,0,0,0,0,0,0,0,0,0,0,0,0,0,0,0,0,0,0],"id":48,"left_children":[1,3,5,7,9,-1,11,13,-1,-1,15,-1,-1,17,19,-1,-1,21,23,-1,25,-1,-1,-1,-1,-1,-1],"loss_changes":[1.9312884E-1,3.7656212E-1,2.0124874E-1,4.5542914E-1,4.7039908E-1,0E0,2.565726E-1,2.1616192E-1,0E0,0E0,2.959465E-3,0E0,0E0,2.259262E-1,4.4225335E-1,0E0,0E0,1.923778E-1,8.190611E-2,0E0,1.0075398E-1,0E0,0E0,0E0,0E0,0E0,0E0],"parents":[2147483647,0,0,1,1,2,2,3,3,4,4,6,6,7,7,10,10,13,13,14,14,17,17,18,18,20,20],"right_children":[2,4,6,8,10,-1,12,14,-1,-1,16,-1,-1,18,20,-1,-1,22,24,-1,26,-1,-1,-1,-1,-1,-1],"split_conditions":[1.215646E0,1.2152896E0,2.7458878E0,9.7857606E-1,6.6456556E0,-1.2986119E-1,1.3518708E0,4.3106955E-1,-1.461144E-1,1.5059726E-1,-7.0501394E-3,-7.8834355E-2,5.132838E-2,-2.0914202E0,5.183049E-1,-7.839757E-3,5.3364756E-3,2.3006854E0,8.909666E-1,-1.4841387E-1,5.4058415E-1,-8.199573E-2,2.3966307E-2,2.2595301E-2,1.3311112E-1,2.9948791E-2,-3.758274E-2],"split_indices":[0,0,21,0,1,0,0,1,0,0,12,0,0,36,13,0,0,21,0,0,13,0,0,0,0,0,0],"split_type":[0,0,0,0,0,0,0,0,0,0,0,0,0,0,0,0,0,0,0,0,0,0,0,0,0,0,0],"sum_hessian":[2.9053703E1,2.451069E1,4.543012E0,1.7810198E1,6.7004943E0,1.0155164E0,3.5274959E0,1.6681482E1,1.1287153E0,2.2309592E0,4.469535E0,1.4706321E0,2.0568638E0,8.9172125E0,7.76427E0,1.5027575E0,2.9667776E0,6.3048844E0,2.612328E0,1.2361954E0,6.5280743E0,1.0471209E0,5.2577634E0,1.5718998E0,1.0404283E0,4.3489275E0,2.1791468E0],"tree_param":{"num_deleted":"0","num_feature":"79","num_nodes":"27","size_leaf_vector":"1"}},{"base_weights":[-1.587077E-2,1.5735643E-2,-1.6011806E-1,-4.8383366E-2,1.7532434E-1,-8.78108E-2,-2.1427846E-2,3.689438E-3,-3.2094958E-1,1.3194275E-1,1.9514277E-4,4.315877E-2,-5.10176E-2,-4.0141944E-2,9.162285E-2,-1.3400342E-1,-1.007619E-2,-6.4243637E-3,4.1202335E-3,-1.18313774E-1,1.3627378E-2,-6.9301925E-3,6.2482458E-2],"categories":[],"categories_nodes":[],"categories_segments":[],"categories_sizes":[],"default_left":[0,0,0,0,0,0,0,0,0,0,0,0,0,0,0,0,0,0,0,0,0,0,0],"id":49,"left_children":[1,3,5,7,9,-1,11,13,15,-1,17,-1,-1,19,-1,-1,-1,-1,-1,-1,21,-1,-1],"loss_changes":[1.378408E-1,2.6693106E-1,9.3468145E-2,2.6804194E-1,3.452446E-1,0E0,1.1610139E-1,2.3409916E-1,9.4368756E-2,0E0,1.8991297E-3,0E0,0E0,3.0118665E-1,0E0,0E0,0E0,0E0,0E0,0E0,1.081179E-1,0E0,0E0],"parents":[2147483647,0,0,1,1,2,2,3,3,4,4,6,6,7,7,8,8,10,10,13,13,20,20],"right_children":[2,4,6,8,10,-1,12,14,16,-1,18,-1,-1,20,-1,-1,-1,-1,-1,-1,22,-1,-1],"split_conditions":[1.215646E0,1.2152896E0,1.3518708E0,9.239538E-1,6.6456556E0,-8.78108E-2,1.3785456E0,-1.16472796E-1,-6.4633775E-4,1.3194275E-1,-7.0501394E-3,4.315877E-2,-5.10176E-2,5.183049E-1,9.162285E-2,-1.3400342E-1,-1.007619E-2,-6.4243637E-3,4.1202335E-3,-1.18313774E-1,2.2856839E0,-6.9301925E-3,6.2482458E-2],"split_indices":[0,0,0,0,1,0,0,56,10,0,12,0,0,13,0,0,0,0,0,0,15,0,0],"split_type":[0,0,0,0,0,0,0,0,0,0,0,0,0,0,0,0,0,0,0,0,0,0,0],"sum_hessian":[2.8681313E1,2.425717E1,4.424142E0,1.7801691E1,6.455479E0,1.6941227E0,2.730019E0,1.5774494E1,